1046 200
777-3 -0.19768378 -0.25502667 0.057303824 0.0038456486 0.11226918 0.027903933 0.18050022 -0.2590121 0.21452367 0.05154981 0.17902671 -0.102933906 -0.20866826 0.06908566 0.23244393 -0.05680537 -0.20651914 -0.038235545 0.085969046 -0.15377541 0.007616025 0.0011498732 -0.08109517 0.01638703 -0.087214224 -0.13624655 -0.04170015 -0.28491697 0.14794353 -0.047999166 0.0036371863 0.1891824 0.08510484 0.000628947 0.1240482 0.16067913 0.25760242 -0.038918495 -0.013337307 -0.19457433 0.04303105 0.17517264 0.11673189 -0.26403585 -0.2651137 0.18232808 0.06323056 0.059524026 0.077335365 0.014417703 0.0028608178 0.25540134 0.0487781 0.07551021 0.13274147 -0.013624871 -0.152655 -0.11150946 -0.14893347 0.19742839 -0.018858673 -0.09535957 -0.013408728 -0.20855904 0.10082324 -0.24926974 -0.15844958 -0.20177837 -0.0005437086 -0.16197723 0.18034132 0.10980589 -0.010303281 -0.20078965 0.20483269 -0.035456125 -0.12317548 -0.06567704 0.026858924 -0.21488623 0.25821543 0.09291027 0.33733118 0.02242242 0.10689508 -0.14741644 -0.054271683 -0.28562608 -0.105796255 -0.038711794 0.118738905 -0.011006442 -0.045492798 -0.0032357473 0.06312848 -0.2223986 -0.14597183 -0.029690253 -0.06545464 -0.029368388 -0.081527986 -0.1243364 -0.20983177 -0.15798354 0.014139882 0.2618385 0.02267791 0.21838404 0.08601033 -0.32183823 0.2614175 0.07340884 -0.007420574 0.028518477 -0.039515097 0.12782885 0.015613059 -0.029520933 -0.075529076 -0.08611034 -0.05496095 -0.16346318 -0.08575117 0.06731868 -0.24817243 -0.006050964 -0.023826925 -0.069446705 0.20968767 -0.21301398 -0.015892178 -0.14340419 0.28269258 0.32234553 -0.22124104 -0.047991525 0.038286325 -0.22065166 0.094879605 -0.10407614 -0.25775692 -0.0140729565 0.19705495 -0.05116928 -0.066483945 0.20760565 0.103534155 -0.003894493 0.10031875 -0.062405128 -0.19364177 -0.22719948 0.041484155 -0.022193 -0.4019984 -0.3277442 0.1597862 0.20879999 0.25266096 -0.124656625 -0.014077397 -0.07990212 0.22536734 0.28192565 -0.021005642 0.062149424 0.09089643 -0.083726674 0.20131701 -0.02839148 -0.17020576 0.1711922 -0.18628441 0.06274022 0.16802298 0.1306313 0.13691872 0.1272729 -0.18235953 0.09546217 0.13613231 -0.010062374 -0.18076427 -0.09125985 0.018791351 0.014842686 0.10634236 0.01404385 0.34752086 0.11572746 0.14155568 0.094108865 -0.1638612 0.276415 -0.27278763 -0.055238474 0.33419508 -0.252072 0.19279756 -0.011710147
2160-0 0.0023539509 -0.23919587 -0.042031005 -0.06807453 -0.05988881 -0.07813293 0.21388336 0.011745175 -0.09892507 -0.19087164 -0.08115579 0.02868924 0.011382725 0.12810849 0.06273278 0.076445475 -0.03207586 0.07914305 -0.09762794 -0.26236132 -0.12254451 -0.17182623 0.029601293 -0.010893261 -0.010183023 -0.1540729 0.14817889 -0.18537012 -0.07473619 -0.11919609 0.09043645 0.007705928 -0.08457964 0.030777909 -0.026541976 -0.11711701 0.2190517 0.16298716 -0.28843233 -0.08874621 0.040767636 0.1646402 -0.02212856 -0.058257487 -0.30038217 0.24613413 -0.090417035 -0.020331725 -0.0068118027 0.14840879 0.115972795 -0.05054214 -0.074372604 -0.17051473 -0.31130344 0.06742168 -0.10690989 -0.16400284 0.046392098 -0.10895566 -0.0938599 0.16216382 -0.11421984 -0.21184644 -0.046999156 0.12300748 -0.042352784 0.027743101 -0.3050883 -0.0070185643 -0.22122493 -0.021990325 0.09680023 -0.072676875 0.18881595 -0.04681638 -0.25106055 -0.12320095 0.2973885 -0.36140907 0.13432294 0.17494959 0.34195748 0.052027438 -0.03654709 -0.010814888 -0.23657225 -0.10598136 0.011579864 0.0069626947 0.15227763 -0.025822045 -0.04254627 0.036345083 0.09965778 -0.35644612 -0.28969884 0.14802341 -0.07700366 -0.17979652 0.058937892 0.095304586 -0.24627702 -0.09602408 0.10908198 -0.09258677 -0.13342273 0.20268333 -0.1108589 0.053696353 0.0061141923 -0.20295362 -0.11920097 0.008777352 -0.041724414 -0.06134813 0.06473074 -0.066096 -0.18274103 -0.039672293 -0.08238345 -0.059692062 0.20283252 -0.037787158 -0.11886036 -0.061715357 0.10325439 -0.024131559 0.08518362 -0.09583193 0.13504322 0.10320567 -0.08474877 0.22787671 -0.31168425 -0.00015319527 0.054479733 -0.14907984 0.2034682 -0.31603324 -0.19810243 -0.01547462 0.21833314 0.10840262 -0.122313686 -0.04693872 -0.12006422 0.011028067 -0.013139721 -0.21049182 -0.00039616527 0.133396 0.3028768 0.092493 -0.12270153 -0.22314143 0.20175005 -0.01017008 -0.0119874 -0.080640525 -0.1571829 -0.07885547 0.3481961 -0.06638547 0.17856976 -0.13213307 0.018176544 -0.20526744 0.009567213 -0.081565075 -0.2211522 -0.02329001 -0.10915325 -0.009569468 0.091036156 0.009508215 0.20212798 0.17600101 -0.07997207 -0.06436556 -0.07032314 -0.15885954 -0.07770467 -0.091950074 -7.10379e-05 -0.25082916 0.024802923 -0.10412496 -0.0065806303 -0.048924316 -0.027486937 -0.17248392 0.1535718 0.046553835 -0.16777231 -0.16079223 0.14143598 0.012532047 0.2968741 -0.11811965
48642-3 -0.15948421 -0.11771258 0.09736969 0.18956803 -0.149626 -0.11866935 0.073148474 -0.18881947 -0.05054232 -0.20026353 0.16493385 -0.042751297 -0.12132467 -0.11394245 0.16705495 -0.09314881 -0.17921916 0.062118303 -0.0711509 -0.41606492 -0.12877746 0.044718344 -0.15552203 -0.069284454 -0.16547643 0.13327432 0.23028229 -0.18433468 -0.16195124 -0.18532902 0.12671499 -0.0036914959 0.022660537 0.0851763 0.007168052 -0.29739982 0.28445652 -0.011834895 0.08038799 0.053921416 -0.06870497 0.14241979 0.0066158623 -0.13975258 -0.29587758 0.03917875 -0.09359741 -0.22843882 -0.022653798 0.13980152 -0.19650462 -0.093739375 0.03075424 -0.023143392 -0.046401985 -0.09626264 0.15530348 -0.19052699 -0.025470857 -0.060485806 0.0092344275 0.11168326 0.010821153 -0.005142036 -0.15917884 -0.209726 0.15758531 0.04844787 0.048682123 -0.082268834 -0.25276753 0.018515017 0.10607077 0.09023181 0.115044475 -0.14179397 -0.31996116 -0.3379286 0.14418599 -0.111386694 0.2394425 0.10299042 0.20024595 0.040710907 -0.038763613 -0.02813617 -0.18399887 -0.04297163 -0.04883806 -0.08170595 0.0055242702 0.03303281 -0.21817079 -0.018421013 0.071154416 -0.29042378 -0.044172563 -0.061954238 -0.17805032 -0.18465221 -0.021621935 -0.22469 -0.29356828 -0.08473751 0.02657266 -0.027610825 -0.042339418 0.15594684 -0.14763461 -0.0023696548 0.11542492 -0.22071993 -0.11067245 -0.061975002 0.05516498 -0.1467216 0.0027010331 -0.06369168 0.040142428 -0.018797202 -0.061221115 0.019046154 0.00053143804 -0.15095143 0.037161965 0.19708434 0.042669773 0.03871456 0.102219984 0.1412088 0.06157842 -0.008260219 0.20647787 -0.0013301024 -0.009822592 -0.21160693 0.0002460005 -0.27209973 -0.019247452 -0.11019994 -0.3833727 -0.19187413 -0.028551742 0.009011929 0.030103175 -0.010185771 0.039396044 -0.14607815 -0.17738752 -0.10765663 -0.16440687 0.12619433 0.2590822 -0.03909632 0.020989977 -0.13258497 0.020862075 0.12545645 0.15654643 -0.4332846 -0.056829143 0.1278319 0.18901195 0.037444063 0.12027659 0.021366445 0.10423979 -0.31816337 0.105571784 -0.032758456 -0.02947733 -0.08862012 -0.18739371 -0.07179154 -0.06574595 0.16124813 0.13621604 0.09963244 -0.21389695 0.09304461 0.27570388 -0.08460336 0.08159989 -0.010817764 0.17068782 -0.17763928 -0.16111602 0.15424892 0.11421564 0.10936665 0.035374768 -0.07170743 0.02750012 0.17703068 0.025366796 -0.16762082 0.108555764 0.056261852 0.09576818 -0.19835182
48643-1 -0.119487435 -0.04332722 -0.012897682 0.021403698 -0.24838883 -0.11373882 0.16716024 -0.03916807 0.25253686 -0.06345723 0.11332406 -0.020955332 -0.023536509 0.028590389 0.10122295 -0.21580881 -0.13987 -0.1120286 -0.03739892 -0.14158267 -0.16065378 0.0935932 0.09265707 0.07586845 -0.104368985 0.17787772 -0.10369839 -0.38550854 -0.10885332 -0.12213115 0.06722848 0.1452947 -0.15594307 -0.05520379 -0.009528605 -0.1437287 0.14853902 -0.07067512 -0.17766213 -0.054694314 0.07183959 -0.0206066 0.16609533 -0.041795913 0.0011314602 0.19651511 -0.18510325 0.18528746 -0.07322883 -0.034939695 -0.18736178 0.04294681 0.09637442 0.026131026 -0.0848308 0.003635048 0.1725957 -0.3918355 -0.04401969 0.14843783 -0.07385707 -0.0018697846 -0.14459048 0.05198307 0.039972212 -0.14371766 0.10128574 -0.022793677 -0.015529393 -0.10413486 0.17321515 -0.17558528 0.05759044 0.035088565 0.20293425 -0.042437855 -0.17782001 -0.2517542 0.29982927 -0.066556215 0.10178777 0.13149482 0.35634282 0.17799982 0.0043906025 0.105360135 -0.032822497 -0.19768767 -0.0928059 0.07293329 0.22857364 0.17836092 -0.10536757 0.07405488 0.03842833 -0.25642854 0.06719484 0.017598314 -0.1302561 -0.28090003 -0.08874072 0.13207823 -0.30407625 -0.13753173 0.08695956 0.09457748 -0.03213036 0.17000863 -0.11803884 -0.01475739 0.053657006 -0.2818444 -0.28226632 0.041305024 -0.10527405 -0.103478074 -0.12803511 0.06627354 -0.13749363 0.042010155 -0.16242296 -0.08512077 0.10513627 -0.09558628 -0.048141073 -0.23398039 0.0073655294 -0.031296484 -0.1986768 -0.07001108 0.19265224 0.12172612 0.015078261 0.3149998 -0.3339253 -0.1240054 -0.017320018 0.1480042 0.13893874 -0.1752719 -0.20741446 -0.1147287 0.023271965 -0.017120458 -0.0045270557 0.056009892 -0.13040704 -0.09904739 -0.034391362 -0.032097567 -0.093883924 0.059508562 0.06331218 -0.050722897 -0.08644319 0.035440993 0.16682427 0.132874 0.28217518 -0.23676667 -0.07899253 -0.04219266 0.31802538 -0.01869781 0.23230915 -0.0041616214 -0.11356 -0.18809135 0.015762016 -0.19286111 -0.1098214 -0.1537609 -0.14057902 0.08036713 0.08207806 -0.08657421 0.10735624 -0.09411821 -0.080477476 0.075621694 -0.007976112 0.2259593 0.06735484 -0.09344677 0.09623511 -0.12461848 0.1787573 0.23949237 0.24102078 0.027692044 0.032494985 -0.15710409 0.013235606 0.030903881 0.15506817 -0.16381735 0.21791577 0.19225925 -0.04200046 -0.16624653
2823-3 -0.08714825 -0.011226753 0.20905964 0.072025694 -0.0038088276 -0.0060789175 0.010204421 -0.0614078 -0.015712116 -0.101542704 0.082394235 0.28951976 0.18584299 0.16053423 0.09724751 -0.06987575 -0.15783964 -0.051277857 -0.23681752 -0.19572036 -0.06336646 0.117875375 0.0017317972 -0.21064861 0.013805234 0.19071008 -0.1047307 -0.2901128 0.06975718 -0.21263522 0.23246837 0.0012993868 -0.091051206 -0.20435481 0.12632953 -0.4801058 0.07380441 -0.03801976 -0.17313308 -0.058204573 0.06497081 0.0085172355 0.11574917 -0.086676136 -0.04347313 0.3290414 -0.11678508 0.041254845 -0.049667954 -0.1471935 0.018692777 0.052211918 -0.037669085 0.009530086 -0.14581059 0.041039776 0.101648815 -0.09551646 0.03585795 -0.2653211 -0.47757247 0.15769595 -0.12041071 -0.11946587 -0.11957609 -0.2518262 0.06538429 0.116913795 -0.120422326 -0.118503 -0.03175042 0.07741348 0.065484524 0.052543752 -0.12127708 -0.027967121 -0.3115021 0.14502871 0.07606585 -0.11458109 0.2089434 0.053497203 0.14189298 -0.035505038 0.022401204 0.16081434 -0.03750436 -0.20353033 -0.03927353 -0.1382319 0.24956304 0.042438712 -0.120047614 -0.055012185 0.11689254 -0.37752777 -0.16949128 0.03969738 -0.06123372 -0.4427497 0.015103006 -0.082906924 -0.17317055 0.015419845 0.0790824 0.122026056 -0.08015929 0.3792977 -0.009132919 -0.16475666 -0.037996694 -0.04784814 0.07148422 -0.022731438 -0.15462877 -0.009921959 0.12727524 -0.021197744 0.0043928223 0.118442796 -0.2634252 -0.07490195 0.002785957 0.08482972 0.06540565 -0.07463392 -0.006183666 -0.16450848 0.016505659 -0.13290012 0.08954048 -0.08088374 0.19534741 0.2474801 -0.09758365 -0.017514661 0.091034986 -0.04194884 -0.07478714 -0.19426665 -0.16396293 -0.13022073 0.16836643 -0.030432703 -0.049791962 -0.02273956 0.096720114 -0.07426426 -0.1423973 -0.017246824 -0.14814986 -0.018995624 0.23095042 -0.09313053 -0.031944666 -0.14060909 0.14505881 0.0700487 0.2278285 -0.084666975 0.14871311 -0.092124894 0.2642902 -0.13248986 0.19553211 -0.06589928 0.14923508 -0.34322047 -0.05298271 -0.14014496 -0.2159545 0.09531174 -0.25533766 -0.24801657 0.11817536 -0.11255301 0.12723309 0.047821593 -0.18099715 0.120558515 -0.082302526 -0.077056505 -0.08709108 0.03435966 0.35248512 0.016437834 0.071155034 -0.009311954 0.14992283 0.11244298 0.10178442 0.12344942 0.10580881 0.22618723 -0.0012994265 -0.22779545 -0.06292301 0.16543421 0.09084128 -0.07946772
4544-3 -0.21483348 0.091197334 0.18583025 0.06475422 0.061345663 0.0070456904 0.15705206 -0.1040689 0.107872725 0.29074895 0.20417248 0.07982597 -0.08292054 -0.03606449 0.318998 0.00681943 -0.11514065 -0.063463025 0.018804668 -0.24663968 -0.07911331 0.32025242 0.122512765 0.04141816 0.058744464 -0.07679111 0.12855342 -0.21454574 -0.07836291 -0.17404994 -0.21964288 0.17557144 0.07748114 0.14583799 0.25567532 -0.014669761 0.3780833 0.13404581 -0.28094947 -0.04725818 -0.08248476 0.002858128 0.1671499 -0.14671837 -0.22680023 0.26474056 -0.07655541 0.039816476 0.102568574 0.19574274 0.079674006 -0.11991414 0.14170174 -0.015912436 0.1072325 0.083364524 -0.058993142 0.0147170555 0.012244595 0.031029081 -0.06618657 -0.21080188 -0.020811966 -0.13467157 0.036054656 -0.21063699 -0.13906749 0.20676515 -0.23191363 -0.22853544 0.21346739 0.12914312 -0.0017591359 -0.1612222 0.06192589 -0.028591732 -0.146212 -0.23353592 0.3903083 -0.028215557 0.15478954 0.09538078 0.27500492 -0.0588784 0.17340818 0.02943307 -0.38625032 -0.20388229 -0.10893446 -0.0910351 0.14273448 -0.09436605 -0.06059521 -0.031061085 0.16639008 0.05563916 0.013561903 0.07098443 -0.24156724 -0.16316824 -0.13300717 0.032035977 -0.3102542 -0.05855828 0.051186997 -0.07662299 0.046733446 -0.10011488 -0.035126 -0.51549447 0.122110955 -0.12528358 0.33269674 0.15227531 -0.12785308 -0.09810505 0.018510412 -0.058722645 -0.20940903 -0.18518987 0.09511849 -0.1519476 -0.13520539 -0.092859134 -0.08863415 0.12041144 0.16174442 0.059276257 0.07469615 -0.14044616 -0.14623837 0.0027696826 0.16453385 0.14036879 -0.09984783 0.047012094 0.10686174 0.060467556 0.1903597 -0.19917165 -0.34979722 -0.026497932 0.2338062 -0.022624953 0.034219358 0.15661255 -0.1578724 0.051303755 -0.10161133 0.092941344 -0.25358507 -0.0864554 0.0301465 -0.041283518 -0.1586332 -0.18666397 0.21331148 0.24296331 0.15636605 -0.19306861 0.21646492 -0.008269148 0.31042162 -0.20324221 -0.01262077 0.032073613 -0.14386694 -0.034934867 -0.107384264 -0.11984886 -0.03950948 0.12662028 -0.05059607 -0.19765255 0.31041744 0.042583086 0.26743653 0.15612166 -0.054631293 -0.232033 0.08663102 -0.08241338 -0.20629686 -0.0015687216 0.15324335 0.05668875 0.025107307 0.010099925 -0.05676398 0.19823305 0.014462395 0.16963606 -0.15806748 0.18863453 0.005228596 0.103418335 0.14515837 -0.12196453 0.15215378 -0.06263307
718-7 -0.08002952 -0.04394167 -0.09391357 0.13926622 0.011087849 0.07417694 0.27394003 -0.23976213 0.27944973 0.014655419 0.019338004 -0.0010118777 -0.0659318 -0.055787925 0.27900442 -0.0071379575 -0.384844 0.016072324 -0.1475891 -0.369798 0.035755847 0.2613121 -0.08849085 0.013732517 -0.21324399 0.031610187 -0.06001533 -0.1310111 0.00446179 -0.18645924 0.039502963 0.0699803 0.23111624 0.082376264 0.108234145 0.10813039 -0.18389039 0.054165192 0.013540603 -0.20382228 -0.07505109 0.134233 0.13494647 -0.14132327 -0.024731407 0.26092002 -0.041167594 -0.056307588 0.20815174 0.1303938 0.101695225 0.32655367 0.21347569 -0.14891958 -0.023341767 -0.0054952693 0.19579935 0.03217278 -0.19313681 -0.0086350925 -0.2889085 -0.15171787 0.1919157 -0.024997633 -0.14966726 -0.11216441 -0.15942048 -0.137164 -0.21058308 -0.25383544 0.17329976 0.10988783 0.16513404 -0.06549597 0.27612978 -0.07858491 -0.0027782558 -0.060233273 0.15505828 0.019175421 0.33044592 0.02290241 0.28652346 -0.11458593 0.27676073 -0.008118236 0.062229935 -0.24287337 0.102094315 -0.07464001 0.3319349 0.11391612 -0.18456382 0.1013636 -0.08869113 -0.060922273 -0.10909915 -0.05624164 -0.31944698 0.006972924 -0.16258357 -0.017152103 -0.14278162 -0.2938161 0.099898465 0.11463343 -0.21411166 0.19380097 0.06312046 -0.29591206 0.23145056 -0.22659814 0.05124581 -0.029576896 -0.19665712 -0.1670886 -0.124394484 -0.26786888 -0.3020567 -0.09082918 -0.035216946 -0.10652554 -0.16208379 -0.05405472 -0.10075273 0.27931112 -0.05101411 0.08478828 0.08755472 -0.02636083 0.2278353 0.059922323 0.11202428 0.21552695 -0.16571213 0.11256492 0.014493301 0.17212734 0.12318712 0.110246964 -0.44517317 0.047015358 0.24821243 0.07668273 -0.16737063 0.046356734 0.104194745 0.06812556 -0.077817775 -0.20050243 -0.27547076 0.098367766 0.31087053 -0.06636935 -0.16394654 -0.43872696 0.14081572 0.0424568 0.14264384 -0.12683083 -0.0023411673 -0.16868086 0.2692303 0.040274594 0.12853794 -4.243206e-05 0.2141442 -0.11429051 -0.0183506 -0.1615204 0.00040594413 0.17084822 -0.054544903 -0.07203693 0.027364762 -0.02613635 0.2713533 0.005944362 -0.10336041 -0.21534315 -0.09145238 0.07150097 -0.10630506 -0.1294826 0.1499434 -0.06056424 0.013637652 0.059318315 -0.04010403 -0.069937915 -0.06016851 0.037240867 -0.18035516 0.04485345 -0.24651279 0.06589505 0.20863101 0.028684553 0.18035586 -0.091439664
26464-8 -0.039246343 -0.14719637 0.081176035 0.17110686 -0.084084034 0.1971345 0.157992 -0.2837327 0.10297141 0.10428112 0.16377226 0.08138329 -0.05773896 0.048618108 0.14447251 -0.052325476 -0.20395775 0.21206708 0.002041032 -0.28275105 0.12732023 -0.039305978 0.19505699 -0.080092564 -0.05557928 -0.07702659 0.03262709 -0.29950714 -0.0052338447 0.033048775 -0.11384955 0.07540918 0.07339378 -0.09347713 0.043828238 0.054375652 0.35997158 -0.012918176 0.043867044 -0.022008259 -0.16757944 -0.038862888 0.010730383 0.055771027 -0.18107522 0.29382092 -0.19059326 0.24165145 0.25171253 -0.065577604 0.12414672 0.17738058 -0.021096427 -0.21849509 -0.005449867 -0.0035035731 0.07674752 0.12809052 -0.04367736 0.13743931 -0.19576621 -0.01026117 0.0011592167 -0.07591318 -0.028706092 0.09006485 -0.0365954 -0.055299655 -0.340581 -0.084875986 -0.09413427 0.047841426 0.23362811 -0.14420603 -0.08817594 -0.09260957 -0.33041796 -0.26601583 0.048022907 -0.05908765 0.03589722 -0.038519412 0.37681657 -0.0036053734 0.13806635 -0.058553897 -0.24530937 -0.2775865 0.12896356 0.021129878 0.05573137 0.02061954 -0.008533184 0.23243137 0.109368004 -0.07493157 0.008017134 0.15427549 0.028441632 -0.23313282 -0.22619255 -0.034100093 -0.29759854 0.010055457 -0.06249936 0.39253062 -0.011716968 0.2306526 0.15802215 -0.34615818 0.09707699 -0.18966042 -0.0563917 0.022666464 -0.058490645 -0.14794804 -0.076743126 -0.09554933 -0.04386502 -0.24284142 -0.2117668 -0.27089164 -0.07836957 -0.30053297 -0.17386708 0.06250232 -0.0526257 -0.008560336 -0.08947891 0.04085257 -0.113909826 -0.25607288 0.1955399 0.23234762 -0.22527511 0.13906455 -0.06996293 0.05337273 0.056350704 0.06977019 -0.21232466 -0.015859785 0.24684916 -0.06854797 0.31702232 0.36418182 0.019087443 -0.047227677 -0.17542337 -0.3093586 -0.39786375 -0.030115204 0.19347991 -0.080164544 -0.25640082 -0.42665935 -0.12301182 -0.0006299946 0.4174763 -0.107105926 0.02819974 -0.00816531 0.18897043 0.036798924 0.03380817 0.12929948 0.04618282 -0.14260674 -0.108964935 -0.18086913 0.038697597 -0.07202009 -0.011054545 0.12056654 0.13191596 0.11883955 0.10365884 0.028769242 -0.15917525 -0.14385054 -0.024119318 -0.06478945 -0.12710305 -0.14391439 0.016033377 0.013120285 -0.092474215 -0.16609423 0.039010923 0.32335076 -0.069594726 -0.027782077 -0.21040808 0.11354738 -0.009077152 0.046483487 0.27296773 -0.13405819 0.13842426 0.026194884
26453-1 -0.17326503 0.064358406 -0.022049092 0.20658474 -0.15284826 -0.10300784 0.19439138 0.06312465 -0.0041098986 0.26761913 0.06805139 0.20450133 0.04370223 -0.104352854 0.43333507 -0.024912817 -0.023419237 -0.028009195 0.103281826 -0.14412351 -0.07196544 0.19077085 -0.04382523 -0.07670467 -0.040679637 -0.06581166 0.22326063 -0.19957712 0.042185247 -0.05218162 -0.07625721 0.039157443 0.06527268 -0.006609688 0.119483605 -0.026707212 0.19347952 -0.13699266 0.066197656 -0.14773306 0.019043103 -0.022321684 0.22422025 -0.053423975 -0.2786565 0.27584928 -0.1358992 -0.09713282 0.11257339 0.13556279 -0.057606287 -0.07677391 0.14636406 -0.20863901 0.15533422 0.3263867 0.07431524 0.030112877 -0.07650733 0.05044273 0.003133072 0.033223994 0.09461742 -0.12875964 0.067504525 0.07643248 0.011841238 -0.084565476 -0.15287663 -0.06959764 0.15542437 0.16444866 0.22970279 -0.18137679 0.24193282 -0.1078632 0.07518256 -0.066980556 0.12577954 -0.19319329 0.2747546 0.024290571 0.311324 0.111702904 0.14228526 -0.24991874 -0.31285337 -0.31123233 -0.014077869 -0.040549867 0.06755955 -0.030450813 -0.0396028 0.0012405993 0.2873663 0.0701578 -0.23486297 0.1514275 -0.3625878 -0.26410815 -0.15625139 -0.16917457 0.008284214 -0.2394347 0.18387142 0.2687332 0.015755644 0.40448412 0.044956926 -0.25530872 -0.0674044 -0.023870958 -0.11601788 0.15142627 0.0195898 0.103956625 -0.05946701 -0.095324576 -0.30953735 -0.034240413 -0.027865242 -0.21842618 0.024521794 0.015597159 -0.1415274 0.14625683 0.103174716 -0.018026156 -0.12954003 -0.15089306 0.07814925 -0.1893239 0.06870832 0.14144132 -0.07673754 0.0017546911 -0.07320258 -0.061808944 -0.064720236 -0.10530309 -0.5884723 -0.109140664 0.13044555 -0.12328979 0.00042784246 0.18289028 0.24672024 -0.03039716 0.016904995 -0.29335654 -0.26118264 -0.13779075 0.056671005 0.03806304 -0.1352701 -0.25723705 0.034468494 0.029317917 0.17909062 -0.014665116 -0.12374951 -0.30098155 0.06078918 -0.006930868 0.21792115 0.004406721 0.11223388 -0.22220917 -0.1881266 -0.19628237 0.128648 0.055247653 -0.13667065 -0.10186452 0.16121481 0.07111415 0.15901268 -0.07058878 -0.091768354 -0.030925121 -0.08051854 -0.013163835 -0.15970193 -0.053209238 0.09256091 -0.025936192 0.051312294 -0.10010218 0.2721645 -0.22301161 0.0067436537 0.21441674 -0.15220001 0.11199678 0.12937361 -0.1713019 0.29161012 -0.4310113 0.002493788 -0.0101213725
30384-2 -0.16800618 -0.112027206 0.019453658 0.064347856 -0.022084286 0.15285195 0.16050093 -0.046570744 0.08781102 0.08880804 -0.0036749926 0.1981607 0.14492059 0.30012575 0.35388127 0.10443399 -0.2272982 -0.0727493 -0.028689617 -0.17369485 -0.007854951 0.20821789 -0.05155816 0.086724445 -0.15216415 0.09496774 0.17679869 -0.1264278 0.00014136502 -0.27067253 0.05022264 0.0628159 0.038213532 -0.15082088 0.10015592 -0.06914121 0.32853657 0.13660258 0.055229276 -0.010303565 0.12286386 0.23739913 0.22613738 -0.33175075 -0.030694652 0.119535156 0.10711357 -0.08751399 0.2745064 0.060333148 0.009363248 -0.09891981 0.21146634 0.0016838177 -0.10850435 0.12177718 0.12716143 -0.16168492 0.15898049 0.067100264 -0.12407907 -0.0011159792 0.21811794 -0.27881446 0.09091566 -0.23083806 -0.012243369 0.17008987 -0.19107878 -0.0870354 -0.070079945 0.16263169 0.06056295 -0.082131885 0.23939988 -0.002636988 -0.005368956 -0.14651637 0.08188958 0.063243225 0.2656859 0.12615682 0.3166003 -0.18980734 0.1945636 -0.08937599 -0.1885601 -0.17596617 -0.12133017 -0.13746993 0.08073633 -0.09295709 0.08377213 0.11827865 -0.022181267 0.0012745447 -0.23691095 -0.01634485 -0.1088439 -0.07556553 -0.29589218 -0.03317748 -0.12435937 -0.009886645 -0.0955081 0.30929866 0.124062195 0.053560484 0.090271376 -0.24681397 0.19936782 -0.16730464 0.018990617 0.0001979255 -0.004758931 -0.01990509 -0.2067135 0.0017191718 -0.2710228 -0.030776754 0.102645025 -0.27301362 0.02931677 -0.17675091 -0.1568513 -0.09584631 0.2822994 0.15569682 0.10972042 0.063277744 0.10838122 -0.07146718 0.06931417 0.22069429 -0.15804844 -0.07532345 0.02071816 -0.07150022 -0.14437893 0.14888982 -0.20968144 -0.26030043 0.25601912 -0.16064507 0.08077292 0.20884573 0.26149958 -0.19572692 0.17907403 -0.052403163 -0.42969874 -0.09980364 0.18126413 -0.20257315 -0.34297684 -0.40665755 -0.013000314 0.31074947 0.26626834 0.085746475 -0.121526375 0.083561614 0.23017837 0.0045079333 0.051245663 0.024263557 -0.041841462 -0.10101157 0.027077248 -0.44610918 -0.22222105 -0.12454525 -0.13490531 0.0023316562 0.23530146 0.14014654 0.021515725 0.24710129 0.03654094 -0.21823984 -0.17280117 0.098038174 0.044242997 -0.23021662 -0.0060987975 -0.14565696 0.24269222 -0.057772014 0.045976788 0.06495873 -0.02954823 0.041500777 -0.1703992 0.08270015 -0.1483867 -0.055128753 0.14929757 0.026398564 0.15768906 -0.024818791
30428-7 -0.051056534 -0.17133978 -0.11858117 0.06022333 -0.02293161 0.06295447 0.23528735 -0.1970444 0.29788333 -0.09164678 0.11479658 -0.116159536 -0.033180624 0.07434162 0.35884708 0.261515 -0.1324444 0.013588211 -0.059613835 -0.11915203 -0.1425257 0.058419313 0.073881835 -0.07217124 -0.24734998 0.049577292 0.3135466 -0.32068208 -0.14365394 0.012873706 0.052753396 0.02568883 0.10223375 -0.011011721 0.2642787 0.044539288 0.11871147 -0.05791357 -0.11972497 -0.12693499 0.00013621345 -0.11973475 0.004506039 -0.054889195 -0.073680066 0.15501003 -0.08281912 -0.020811152 0.22903863 0.043147516 0.3017989 0.08839815 -0.19944148 -0.17191106 -0.03523946 0.13008097 0.07965429 0.15027921 -0.08252147 0.09848958 -0.28824538 -0.35875425 0.21699646 -0.06699994 0.04708615 -0.39401647 0.03001914 -0.058374498 -0.17926632 -0.42354593 0.20369191 0.044141963 0.12335369 -0.12951632 0.26130998 -0.15669233 -0.08612042 -0.25358889 0.18903974 -0.08958506 0.069766685 -0.06970536 0.14370956 0.059542093 0.08985459 0.089196086 -0.1447802 0.071700856 -0.13565835 -0.15086856 -0.08753546 -0.020402264 0.010750765 -0.051911216 0.12283257 -0.21037056 -0.24317773 -0.034140028 -0.3772831 -0.20732048 -0.09079237 0.25476226 -0.0878203 -0.342196 0.08620273 0.21780905 -0.009008125 0.27146667 0.02785687 -0.23226641 0.09481386 -0.09370129 -0.069082566 -0.005356375 -0.08509541 -0.051818877 0.03598796 -0.04221699 -0.12123984 0.06379342 -0.007948956 -0.09369455 -0.07686623 -0.2796974 -0.059729375 0.0875375 0.035969038 -0.015146609 -0.13397042 0.004000479 -0.17005278 0.032856815 0.13453776 0.11483012 -0.05849228 -0.20181818 0.03915812 -0.21489513 -0.1582696 -0.0933195 -0.13661692 -0.12821108 0.048089605 -0.19390158 0.1177141 0.067851394 0.081059135 0.028362941 -0.11215846 0.010177134 -0.41431168 -0.07066326 0.14019394 0.129098 -0.3430495 -0.45428485 0.2914043 0.20213695 0.1814287 0.06316982 0.07290137 -0.25881195 0.27022874 0.170868 -0.080130436 -0.18572982 0.011144392 -0.013344664 -0.06240998 -0.27521437 -0.027271232 -0.09256244 -0.13976748 -0.03171722 0.26479217 -0.012092733 -0.059336837 0.06148686 -0.13236062 -0.023127392 -0.0043695825 -0.12520856 -0.15892898 -0.25432643 0.10480338 -0.13652025 0.06380747 -0.17805704 0.10883797 0.10472097 0.10606227 0.15415376 -0.15153988 0.16031592 0.05613603 -0.096858315 0.3134172 -0.08389302 0.192939 -0.08225518
28540-3 -0.034626305 -0.21252461 -0.14439401 -0.09932913 -0.03275674 0.08445337 0.12729618 -0.15713574 0.06665946 0.199313 -0.08137993 0.23130207 -0.17882536 -0.005121895 0.081501275 0.079651505 -0.34801596 0.15868168 0.042285297 -0.20390864 -0.09241826 0.18848762 0.1313706 0.00013742001 -0.06907209 0.13419719 0.21200787 -0.2722162 -4.7028247e-05 -0.03303109 -0.03761326 0.18892956 0.12543222 -0.093042225 0.35288233 -0.19822456 0.23329292 -0.07096583 -0.12922753 -0.10646351 0.04250148 0.2320454 0.3961049 -0.21171354 -0.35377902 0.23831403 -0.13681576 -0.051308393 0.029083487 0.08193558 -0.01212293 -0.08763071 -0.10083291 -0.22993302 0.00967202 0.09075015 -0.048641708 -0.22057387 0.027001366 0.21336938 -0.09161369 -0.1322821 0.16924039 0.09585062 -0.12916374 -0.010584667 -0.026520647 -0.067832686 -0.15930666 -0.008257141 0.227376 0.1253189 0.15678962 -0.20160988 0.1344276 0.13892752 -0.016349835 -0.09353008 0.32606223 -0.1262168 0.10719372 0.12536067 0.20884545 -0.10679123 -0.026434049 -0.060905296 -0.16443199 -0.1306457 -0.02314399 -0.018489875 0.088896185 -0.010693982 -0.20442897 -0.05734359 -0.054520667 -0.14157534 -0.34036598 0.055479493 -0.0929547 -0.27719456 -0.04600679 0.038521312 -0.16302028 -0.24809042 -0.09549658 0.28049925 0.023526117 0.29645833 0.07633569 -0.08866407 0.1293513 -0.1673262 -0.0050136223 0.0030789599 -0.11471452 0.05006472 -0.06272185 -0.009084118 -0.15464126 0.0928765 0.024641773 -0.16850057 -0.025055807 -0.19398749 0.10973576 0.25474545 -0.10640295 -0.0021575254 0.071961105 0.11659426 0.0265557 -0.18538697 0.33483586 0.27546772 0.14155705 0.018251678 0.20660847 0.070847705 -0.01610586 0.06020757 -0.053002194 0.11339262 0.24818586 0.10009408 -0.03845634 0.2075275 0.04362759 -0.026835635 -0.16659136 -0.14879125 -0.37069845 0.014274752 0.19026637 -0.058296274 -0.3002008 -0.31954214 0.12827641 0.075991124 0.16906483 -0.116845906 -0.14688799 -0.12673494 0.16667786 0.022684364 0.1269491 0.2724003 -0.24174814 -0.19090194 0.08661668 -0.0004839914 -0.04748586 0.076767065 -0.03664501 0.11263394 0.20124367 0.17176844 -0.0032937697 0.06937363 0.13045897 -0.11871647 0.0384696 0.17727484 -0.32849827 -0.18596339 0.18917395 0.0037352599 0.17638402 -0.09462675 0.064635545 0.011010145 0.07443324 0.31640843 -0.3183495 0.19047375 -0.032530587 0.11482183 0.24071716 -0.1229984 0.29605383 -0.21996488
28539-5 0.06709346 0.18324432 0.066764496 0.083085574 0.021885267 0.1648492 0.111400805 -0.08028351 0.03574338 0.062260404 0.012051339 -0.08096762 -0.050755233 0.0126245795 0.31066278 -0.044613894 -0.25658765 -0.06389714 0.064583994 -0.1490806 0.17272247 0.11227162 -0.12579958 0.05308272 -0.057218906 -0.045652617 0.28354084 -0.6058656 -0.14103098 -0.4555636 -0.026170755 -0.024677433 -0.033967987 -0.08581285 0.036143813 0.15823211 0.24471417 0.12302469 0.07757518 -0.31208435 0.044425577 0.08845464 0.05151348 -0.2398282 -0.22058582 0.017601775 -0.03897985 0.022143584 -0.011808939 0.23234583 0.039084233 0.059973363 0.090407476 0.07442495 -0.14906065 0.1110092 0.0847023 -0.031168561 -0.018197767 0.0878619 -0.108466506 -0.1290646 -0.14326242 -0.017376276 0.09089756 -0.15442234 -0.005372302 0.1141197 -0.17427485 -0.29786286 0.021451205 0.0075682877 0.16500737 0.01700817 0.099253014 0.14327009 -0.25944108 0.025270104 0.102050476 -0.29719195 0.22796275 -0.09529972 0.33593506 -0.07592859 -0.09612914 -0.28436732 0.019450964 -0.11349049 -0.031444263 -0.061688546 0.17919289 -0.020889144 -0.10783442 0.011758869 -0.0059515275 -0.100725636 -0.13600205 0.08053897 -0.079790965 -0.22606269 -0.24068746 -0.0013979664 -0.07607428 -0.14861421 -0.011103355 0.28650784 0.10450884 -0.044491094 -0.045939013 -0.11642546 0.13548376 -0.15708928 0.06751589 -0.074370705 -0.17983282 0.12730943 -0.06203842 -0.20360695 -0.34286958 0.03542361 -0.044963982 -0.32935834 -0.12493431 -0.15383855 0.13883708 0.23466489 0.09481146 -0.12126988 -0.09021767 -0.11686836 -0.044532094 -0.20808162 0.11746891 0.18484293 -0.09160567 0.054456633 0.06707864 -0.12995903 -0.14297998 -0.04720715 -0.38869002 0.23822589 0.22442713 0.013098308 -0.114274934 0.22620595 0.013192287 0.06334118 -0.07172415 -0.015707307 -0.45725915 -0.10537328 0.10017824 0.04268415 -0.46009997 -0.41893584 0.1339822 -0.040540356 0.25501844 -0.11192379 -0.10472247 -0.08012946 0.28723776 0.047608882 0.12526181 -0.06611462 -0.20938757 -0.05410755 0.07952937 -0.22564147 0.23552372 0.19541496 -0.03431496 0.0125757465 0.05677437 -0.19193356 0.027478896 -0.089820154 -0.17875919 -0.007372673 0.008908983 0.20197488 -0.10208055 -0.14783022 0.06991685 -0.11089434 0.03025234 -0.050928988 -0.022448814 0.2836358 0.09385719 0.03715928 -0.09047816 0.18332775 0.010139019 -0.16650172 0.16095917 -0.23338658 0.18945454 -0.013188826
2951-2 0.0025515994 -0.24944232 -0.082628764 0.006459503 -0.024175784 -0.09246163 -0.12975094 -0.30002594 0.17791973 -0.08686271 0.14062284 0.09077609 0.06556826 0.089424066 0.15514462 0.07430406 -0.04479348 -0.15793194 -0.01519356 -0.1973502 -0.20780149 -0.085313216 0.07694715 -0.12060449 0.10845318 0.13976583 0.028964221 -0.32352132 0.07480576 -0.3210595 -0.03809673 0.28050187 0.15766083 -0.2149463 0.18207487 -0.2419177 0.11756525 0.26900733 0.027816761 0.11385371 0.028519189 -0.0681363 0.1681292 0.1652081 -0.15703107 0.18304996 -0.13693294 0.047576617 0.013911192 0.082396366 -0.18981779 -0.16589116 0.11889679 -0.0973883 0.12362059 -0.051583827 -0.029807294 -0.23319894 -0.19345269 -0.13494797 -0.10443813 0.014229314 -0.13233343 -0.1463938 -0.054338846 -0.1449919 0.095251605 -0.1743649 -0.27651757 -0.24371125 -0.08873034 -0.010572282 0.08977224 0.036980383 0.050948855 -0.10846931 -0.12512788 -0.009279693 0.32540882 -0.10425858 0.2332152 -0.036852628 0.25859025 0.090639815 -0.097092435 0.11008721 -0.16087696 -0.14998263 -0.04045374 -0.2049238 0.22780056 -0.11347347 -0.030983876 -0.16603908 0.047945485 -0.32667395 -0.15409352 -0.13924712 -0.13166352 -0.12742133 0.08577429 0.06400343 -0.012855005 0.069662325 0.20117891 0.08321426 0.17679554 0.11643442 -0.24136075 0.02254408 -0.09187516 -0.07076383 0.036923498 0.16213165 -0.13183302 -0.23180184 -0.038445454 -0.16357167 0.07629729 -0.025513865 -0.09299869 -0.1992429 0.2608475 0.05659045 -0.13188498 0.07070352 -0.1722281 -0.017432703 0.12032548 0.015590133 0.09908246 0.10349577 0.00036203134 0.45287713 -0.18363802 0.009316831 0.1436761 0.12923875 0.038479373 -0.0037800823 -0.22191386 -0.2015765 -0.057110358 0.15633728 0.041264873 -0.041074216 -0.06483314 -0.0935044 0.06496432 -0.22133127 -0.31331387 0.045866538 0.23313999 0.08300427 0.030406673 -0.39083195 0.0709779 0.19415455 0.12959145 -0.20121853 -0.11620811 0.016708108 0.26210925 0.0052747894 0.25230268 -0.19411258 -0.056904815 -0.04574187 0.09621832 -0.14430144 0.16855621 -0.023430167 -0.086058505 0.0198981 -0.11333897 0.10873611 0.16614373 0.14985038 -0.10891706 0.098175466 0.07870812 0.06975471 0.01614354 0.029500853 0.0017910409 -0.209945 -0.13205223 0.064205244 0.11335872 0.2490237 0.088602744 -0.053066768 0.05160974 -0.023889752 -0.05424154 -0.21367125 0.07381416 -0.13382074 0.07598689 -0.14045723
2345-7 -0.04628174 -0.24687535 0.07665941 0.049972203 0.11466568 -0.11915048 -0.045977157 -0.09190884 0.060123853 0.01049692 0.055180665 0.015195045 -0.1779695 0.13746342 0.0078109996 -0.18343495 -0.07901374 -0.017951336 0.10804028 -0.044718828 0.0928966 0.17030361 -0.09201054 -0.06675496 -0.032541092 0.10952845 0.054131176 -0.06452686 0.006801901 -0.2399062 -0.083510466 -0.013107347 0.018691042 -0.16739383 -0.04257196 -0.27875444 0.20766906 0.005871005 -0.26813814 -0.27947384 -0.013988731 0.092057295 0.02238035 0.15176718 0.12322137 0.23853764 0.15392841 0.21859814 0.12335914 0.3509406 -0.14669129 0.053912625 -0.1520463 -0.11539077 -0.22912532 0.012869659 0.043742202 -0.2263541 0.024229882 -0.055386897 0.034120753 -0.09330598 -0.010507769 0.06964255 -0.12998004 -0.17587268 0.075877234 -0.08753982 -0.013632296 -0.08202501 -0.35210463 -0.12719077 0.0043401252 0.020870576 0.102502845 -0.22971655 -0.2560274 -0.19350019 0.0715386 0.05661351 0.27847394 0.09511449 0.17454496 0.16553865 0.33923545 0.007628352 -0.16215064 -0.12489828 0.04924434 -0.18115246 0.0023984788 -0.03554896 -0.14578477 0.10509332 0.11539588 -0.0827638 -0.19751836 -0.014433769 -0.15944608 -0.21379973 0.01898201 0.18263996 -0.19866827 0.025205078 -0.1595005 0.086683415 0.15022293 0.2679468 0.23797914 -0.09233965 -0.051351577 -0.031690322 0.1306833 0.082909085 0.015339675 -0.01679116 -0.08517934 -0.011954693 0.0010203725 0.26209646 -0.0576993 0.013333255 0.11820601 0.08922685 -0.19355476 0.060325198 0.024261154 -0.1516538 -0.17038842 0.007875029 0.19051602 0.031287033 0.25121713 0.27615452 -0.21308504 -0.18759842 0.15172996 -0.22624788 0.13521026 -0.12805511 -0.3874589 -0.0072867256 0.040069617 0.070931844 -0.18831013 -0.047464296 0.043819435 0.15341964 0.0473669 -0.2650363 -0.3342829 0.21264075 0.28425205 0.06644307 -0.011013034 -0.12067823 0.017421598 0.034246802 0.07124079 -0.14557166 0.020671181 0.091979176 0.47723782 -0.1143336 0.20006123 -0.17185052 -0.26587152 -0.44169992 -0.1618157 -0.12749873 0.053545035 0.09391731 -0.11698429 -0.020495676 0.09574529 -0.0548717 0.146357 0.11234009 -0.07722005 0.032291017 0.12462727 0.028694669 -0.032732222 -0.20499061 0.08154369 -0.19261065 0.01624416 -0.028420035 0.14094678 0.2028309 0.070020206 0.0038113105 -0.10310992 -0.053271875 0.07341481 -0.18106334 0.14622164 0.12733415 0.15290783 -0.073284045
17861-6 -0.22406904 -0.0106457295 -0.06906963 -0.17075635 -0.22561616 -0.21653621 0.118568726 -0.26024815 -0.0045512244 -0.15298899 0.18914974 -0.07915346 -0.071219906 0.17007257 0.07553874 -0.048394006 -0.051338557 -0.2079808 0.04804844 -0.36162126 -0.031461753 0.025582947 -0.10229743 0.022529412 0.17567655 0.20011838 0.05583151 -0.15550128 -0.032411788 -0.18366644 -0.12143668 0.27733082 -0.009510984 0.1005725 -0.010008388 -0.324086 0.092009336 0.08920999 0.094596975 -0.4149713 0.04031681 0.17929246 0.20442925 -0.01162463 -0.1438835 0.23626475 0.031341612 0.2149436 -0.00049985887 0.09385387 -0.005623076 -0.047126614 -0.15186948 0.013314316 -0.1953931 0.053236872 0.09945314 -0.13762093 0.020976325 0.01937083 -0.12392607 0.17149672 0.14270407 0.027366757 0.16013071 -0.16856737 -0.057647355 0.18371655 -0.29286385 -0.16596292 -0.06578482 -0.02136002 -0.009342345 -0.07207495 -0.0030783014 -0.029287035 -0.19394468 -0.1107416 0.2353296 -0.12974274 0.048172235 -0.11080992 0.15431236 0.13634928 0.060728814 -0.06615117 -0.011216402 0.014942941 0.08076783 0.059218388 0.08092304 0.08199819 0.08920297 -0.0040745074 -0.109431855 -0.29617134 -0.24817115 -0.034253217 -0.2528488 -0.073252335 0.11123552 -0.16212694 -0.17759949 -0.032825045 0.114030436 -0.017951332 -0.11044546 0.07315122 -0.112118185 -0.16502242 -0.0574977 0.092716 -0.017576395 0.2229921 -0.110470176 -0.07215358 -0.0033984398 0.09251623 0.05209472 -0.043994546 -0.1985376 0.019704621 0.24509138 -0.2325799 -0.14568636 0.048701223 -0.011508541 0.037274923 0.1484329 -0.12056862 0.12893039 -0.15272713 0.085829034 0.11070603 -0.3299806 -0.041768737 -0.1778922 -0.03654841 0.14037545 0.008583305 -0.43312937 -0.031783395 0.11206226 0.07836264 0.053271227 -0.17569752 0.018069578 -0.13427001 -0.06970879 -0.23820177 -0.18362351 0.22100893 0.12720089 -0.14707036 -0.30509537 -0.14252877 0.21528114 0.19130625 0.3274928 -0.12096555 -0.19530104 0.15088333 0.3286509 0.08689001 0.24090531 0.12897834 0.020525604 -0.12008498 -0.2979572 0.059331466 0.0903233 -0.028501196 -0.3281927 -0.05646478 0.16463569 -0.044056628 -0.053548906 0.04189914 -0.16084562 0.12376939 0.028565504 -0.009298802 -0.13837564 -0.26693377 0.26370722 -0.15021594 0.12311207 -0.17577586 0.0016432088 -0.148442 0.15983719 0.039485477 0.055858064 0.22029439 0.1914456 -0.10734455 -0.04550669 0.061283037 0.10263724 -0.11106351
3094-0 -0.35742474 -0.1903883 0.047785785 -0.17006727 0.008201091 -0.025338352 0.0003969914 -0.05019674 0.0079137245 0.06554678 0.11868065 0.057528093 0.012918872 0.2106811 -0.150779 -0.14710699 -0.037325114 -0.23848426 0.21161829 0.006434547 0.0128028635 -0.025366254 0.009717623 -0.11267676 -0.055554703 0.044085152 0.07482567 -0.26027024 -0.15869461 -0.2010497 0.0978893 -0.0333139 0.057311893 -0.057597198 0.019774467 -0.23670734 0.1737527 0.073572345 0.014663752 -0.17172793 0.0119690765 0.055439137 0.07288449 -0.13190082 -0.17922792 0.18080299 0.04404693 -0.00016575168 0.07486678 0.26024762 0.19030915 -0.17923677 0.07280115 -0.20173317 -0.19311638 0.36100885 0.12810823 -0.27579334 -0.07653455 0.014319492 -0.14457013 0.12108063 0.06674112 -0.2102423 -0.16821222 -0.13269281 -0.1168982 0.04754925 -0.19177349 -0.055945177 -0.070524536 -0.082903035 0.07791201 0.06353206 -0.018139724 -0.016703777 -0.29306215 0.04832682 0.20333642 -0.2413239 0.15432997 0.11263499 0.3406433 0.0018517704 -0.047672324 0.100151494 0.030382607 -0.30996275 0.06193982 -0.0062906933 0.09950444 0.19683778 -0.10713805 -0.08634118 0.12008395 -0.1408898 -0.0978453 -0.22602119 -0.079346456 -0.11715911 0.073440835 -0.10158001 -0.19504452 -0.08544874 0.11096648 0.016104909 0.14522548 0.21146315 0.1262878 -0.16285457 0.26936343 -0.01537719 -0.049522806 0.23767139 -0.32011753 -0.027461426 0.10776611 0.09503575 -0.13767117 0.024008213 -0.41370007 -0.10025962 0.13012844 -0.08319921 -0.09324056 0.0890019 0.0423051 -0.003559713 -0.10087645 0.0878518 0.1557176 0.155279 0.19395137 0.21530737 -0.042908058 -0.26138997 0.012419428 0.07984635 0.09945492 0.03332534 -0.3205603 -0.32756665 0.06691976 -0.032330997 -0.07177109 -0.27471668 -0.21711002 -0.13978583 -0.31608847 0.07197524 -0.07493069 0.090849675 0.2058265 0.02803236 -0.093049385 -0.08614143 -0.029494913 0.2384946 0.33357984 -0.083470486 -0.10513719 -0.22939718 0.17853418 0.050279304 0.043089714 -0.3556109 -0.097760364 -0.2556622 0.15035911 -0.027601423 0.01939958 -0.06746852 -0.034225322 0.12067031 0.0071108723 0.13725007 0.15329151 0.05648944 -0.25843352 -0.0044040903 0.19171545 -0.103177495 -0.06768747 -0.14281073 0.12693189 -0.17182492 -0.081461355 0.0486138 -0.061558764 0.005903798 -0.13537823 -0.06755411 -0.14788035 0.008766087 0.0021663762 -0.03813523 0.21163969 -0.022714164 0.09575708 -0.26022136
2028-9 -0.18240885 -0.15929039 0.09267974 -0.008715567 -0.096314415 -0.31125474 0.32449812 -0.07752375 0.067258306 -0.05699269 0.2540592 0.0230742 0.15334724 0.06437157 -0.048136327 -0.089493595 0.012412992 -0.0609566 -0.026248047 0.0023386793 -0.2519619 0.12447277 -0.12115502 -0.061054915 0.12429274 0.12750617 0.16468959 -0.28625232 -0.038871698 -0.3389777 0.014912011 -0.06414132 -0.04312426 -0.15675946 0.052541897 -0.13954316 0.12470413 0.11501354 -0.093084425 0.12151408 -0.08374213 0.1302714 0.19356318 -0.14057061 -0.26662943 0.009891243 -0.029336618 0.009970817 -0.039332956 0.10419988 -0.047119796 -0.21710856 -0.025463788 -0.43711296 -0.07015335 -0.016680203 0.18969366 -0.18497273 -0.04923923 0.05708575 -0.21851479 0.03644501 -0.1462556 0.06804794 0.045698505 -0.23256844 0.037189364 0.083399974 -0.26611766 -0.20093057 0.004698731 -0.10441126 0.030301217 -0.33184943 -0.07411961 -0.19807386 -0.20059456 -0.12895824 0.044851232 -0.2854219 0.2888483 0.041475546 0.18250845 -0.11096341 0.2397799 0.27125373 0.049115855 -0.22164845 -0.13320929 -0.073227115 0.12903984 0.17010961 0.046000574 0.029945936 -0.1024941 -0.22123429 -0.2643822 0.019617606 -0.1465123 -0.19450375 -0.18510759 0.25023112 -0.28105927 -0.16103268 -0.07272559 0.09213687 0.017084075 0.3622224 0.079544954 0.058974944 0.09131817 -0.041170914 -0.097477 0.12349483 -0.103580914 0.14587842 0.054902606 -0.15377225 -0.00032533848 -0.042469494 -0.019522993 -0.12119616 0.109647006 0.0075224712 -0.12789883 0.10357544 -0.008803167 -0.15614453 0.112280495 0.067377776 0.1822243 -0.11651782 0.195099 0.09375185 -0.44093123 -0.09538136 0.06674279 -0.076134264 0.020257045 -0.23000611 -0.19748403 0.07850637 -0.029900087 0.042178433 -0.012896352 -0.033424824 0.030649984 -0.13093694 0.038825005 -0.05231686 -0.062332213 0.21656802 0.3606787 0.026805466 -0.19151796 -0.17033973 -0.038080443 0.09387804 0.20732741 -0.3552747 0.19517225 0.08036993 0.11813504 0.07933117 -0.046450745 0.13601011 -0.10068196 -0.08393008 -0.100908995 -0.15520154 0.043871015 0.14882927 -0.03770231 -0.22611862 0.020940104 0.27168614 0.10140707 -0.12148437 -0.30024073 -0.031359747 -0.004716248 0.058805134 -0.094987385 0.15001675 0.11489967 -0.37977085 0.06357226 -0.087686226 0.020816687 -0.016592143 -0.046151076 -0.21090035 -0.002858403 0.04279867 0.08240695 -0.043660667 0.11740438 -0.048377946 -0.052504648 -0.04692775
2075-0 -0.20906822 -0.19211781 0.097279966 -0.15585512 -0.31793633 -0.16201241 0.18402502 -0.33646697 -0.12597392 0.10609605 0.026622927 -0.015612794 0.13609025 0.21036768 0.06933835 -0.0062732706 -0.20002566 -0.042371877 0.020306345 -0.23038724 -0.01353395 -0.0614409 0.0073262337 0.17270057 -0.043959912 0.13908692 0.12992518 -0.38664687 -0.02123296 -0.21488479 -0.12271392 -0.107134506 0.01002527 -0.24154304 0.023543643 -0.33584312 0.27956733 0.1561202 -0.12443508 -0.024081264 0.05124887 -0.10607544 0.052733332 -0.05182882 -0.065522 0.10787658 -0.14314145 0.20209754 0.0005090127 -0.056657422 -0.053519487 0.18851045 -0.120258056 -0.1880439 -0.02584162 -0.048801906 0.016948838 -0.24629675 0.008568519 -0.07008799 0.16313751 -0.13134941 -0.03559492 -0.18302159 -0.028655779 -0.050500393 0.0337142 0.17318277 -0.19135815 -0.09031405 -0.1338471 0.18636686 0.084074154 0.061965894 -0.011758299 -0.09857508 -0.1204102 -0.37525508 0.28199482 -0.1591024 0.2373709 0.20004049 0.41952226 0.17444426 0.14694433 0.14316112 0.098251045 0.007062951 0.14330408 -0.05315896 0.1109228 0.19542287 0.03638324 -0.13777962 0.07948466 -0.11451174 -0.10455042 0.021212129 -0.15510772 0.0063211233 0.027279966 -0.26460037 -0.095752165 6.101219e-06 -0.15779606 -0.03611043 -0.09746855 0.24983281 -0.14307407 0.09723725 0.28284386 -0.10420709 -0.116106175 0.09644523 -0.18114154 -0.021876313 -0.11379745 -0.11826917 -0.055962708 -0.099016465 -0.27051976 0.0390678 -0.036792286 0.13428745 0.052432157 -0.048292693 -0.016443454 -0.012885019 0.13181922 -0.1621068 0.19221419 0.2169691 0.19540384 0.30510116 0.045820974 -0.1925516 -0.26049805 0.041414347 -0.007647861 -0.14929514 -0.3091957 0.02261968 -0.06441118 -0.0063391803 -0.17405641 -0.065606646 0.2175277 0.10185951 -0.045287292 -0.046967346 -0.18415873 -0.05404305 0.37728983 -0.05694939 -0.017707668 -0.27924103 0.11395038 -0.012030225 0.07622359 -0.27980494 0.09804172 -0.17664944 0.12207058 -0.19820951 0.04492143 -0.03177375 -0.021254072 -0.07850311 -0.010918081 -0.16500361 0.025363028 0.02791091 -0.1623006 -0.06513435 0.21795519 -0.101832196 0.105639026 0.016884401 -0.1405377 0.07561857 -0.013790464 -0.11524712 -0.04967448 0.028181037 -0.052505314 -0.32436112 0.17605783 -0.079862766 0.12786755 0.14379348 0.064741835 0.064200036 -0.15218654 -0.049398985 0.1478297 -0.194653 0.027366016 -0.06801941 0.22794554 -0.33789173
1751-7 -0.19487397 -0.038390264 -0.042612832 0.14238924 -0.08239891 -0.24282001 0.07396352 0.015555016 -0.0052388944 -0.17150544 0.17280066 -0.08613128 -0.035182595 0.2077145 -0.032234233 -0.3146559 -0.1835522 -0.07600434 0.01571079 -0.10866976 0.042364758 0.16382669 0.16743852 0.038040325 -0.057732753 -0.011356209 -0.07090721 -0.32975602 0.15329273 -0.3475996 -0.14555508 0.029591357 0.16109633 0.06043673 0.17024864 -0.24258664 0.08490124 0.0989339 0.032063007 -0.116629146 0.075454615 0.24068925 0.0668879 -0.036563996 -0.090596475 0.14645737 -0.048635557 0.07949218 0.010967678 0.14806986 -0.007184156 0.039634302 0.1381621 -0.30957878 0.13642652 0.27750984 0.26922596 -0.29711816 0.016332243 0.011093932 -0.19180681 0.2017781 0.10346698 -0.0029118608 0.037187178 -0.14006709 -0.09552411 -0.25917283 -0.046985243 -0.3759977 -0.3290117 0.11458392 0.14134637 0.11340173 -0.15719514 0.11194331 -0.24315529 -0.23541369 0.26533243 -0.15779269 0.10099524 0.25624317 0.2764915 0.2327404 -0.026223995 0.2785519 -0.32243145 -0.13827337 -0.12577453 -0.023401802 0.049245637 -0.30377203 -0.124987066 -0.18899179 0.033617567 -0.15525194 -0.17154641 0.17934492 -0.08448833 -0.10470893 0.09316948 0.015667422 -0.22690512 -0.010333076 0.10950475 0.051635697 0.09052264 0.19846722 -0.180023 -0.14299086 0.07657358 -0.07074336 -0.27197143 0.1476712 -0.06955339 -0.13932197 0.000963229 -0.013161731 0.0023632443 0.01777952 -0.21252435 0.025177361 0.10632857 0.019080129 -0.09679538 0.07183324 -0.048128482 -0.23165229 0.16774143 -0.0013707754 0.12671334 0.100821644 0.055370543 0.11319752 -0.12799567 -0.120722376 -0.12059415 -0.20127213 -0.15369475 0.006354214 -0.27722666 -0.01555019 -0.08355087 -0.081364885 0.013317502 -0.11242527 -0.07475858 0.00510094 -0.37872124 -0.12312338 -0.19610219 0.23140357 0.15374197 0.0022659083 -0.24535933 -0.32927433 0.21082468 -0.13449292 0.11435256 0.016412707 0.07163357 0.13416193 0.22863056 0.020095369 -0.0055844183 -0.050405648 -0.050419353 -0.27711922 0.034720547 -0.16743656 -0.07423542 0.014967391 -0.13511938 -0.1496287 0.21025029 -0.08781623 0.05704884 0.076285444 -0.0003255764 -0.06121736 -0.09752174 0.16757973 -0.061862145 0.29348034 0.11199995 -0.00875245 0.35973248 0.1741035 0.10367692 0.028649617 -0.09902535 -0.27084127 -0.17086159 0.14363594 -0.08893443 -0.1711868 0.09562938 -0.01890022 0.2652371 -0.032381814
1742-6 -0.22851817 -0.17820339 -0.21246663 0.24436522 -0.025495151 -0.27914333 0.088859245 -0.15160213 0.20131981 -0.031041127 -0.021586185 0.082738355 -0.27998656 0.20543656 0.2333957 0.081862435 0.04887296 -0.13381612 0.21698114 -0.17861967 -0.048681043 0.2509743 0.03655019 -0.13379641 0.056921978 0.1825558 0.15610164 -0.26218656 -0.0062152506 -0.051601995 0.1710925 0.14687352 -0.14342205 0.17532185 -0.073507786 -0.44350958 0.29224074 -0.050178226 0.021382112 -0.21792632 0.232615 0.19502775 0.27465826 -0.2164907 -0.27163246 -0.09273898 -0.0012104849 0.08009596 -0.08988213 0.005398345 -0.028213039 0.017657893 0.05766195 -0.0803554 -0.28797638 0.1746797 -0.005482897 -0.049163245 -0.11798369 -0.033155 -0.0985078 -0.12083369 -0.0952699 -0.2716233 0.003937739 0.09882739 0.081370175 -0.0863797 -0.27387753 -0.39253378 -0.2428831 0.10414041 0.18527582 0.21356498 -0.09391756 -0.08259801 -0.31952128 -0.12108166 0.33969754 -0.090137914 0.15666516 0.12951979 0.03496132 -0.0946187 0.043102577 0.08260075 0.17904204 -0.33656335 -0.2566967 -0.13902804 0.040848844 0.31963432 0.036190495 -0.03830264 0.12562583 -0.12364876 -0.3181536 0.11480568 -0.037770048 -0.13292152 -0.049856067 -0.0033570293 -0.36601356 -0.23812053 -0.14855477 0.07852127 -0.10340253 0.1724613 0.107245356 -0.13096596 0.10965007 -0.16392405 0.16299719 -0.10735341 -0.11038851 -0.08467213 -0.030756801 -0.184088 0.018943021 -0.1142435 -0.17344725 0.13476773 0.0946535 0.094645895 -0.07972606 -0.1077651 0.012095711 -0.06703229 0.103273526 -0.03483177 5.312192e-05 0.1294192 0.015334436 0.21212386 -0.17595167 -0.0144301215 0.04257019 0.08298268 0.23626563 -0.09826773 -0.116288416 -0.24348043 0.1458851 0.018693864 -0.035104077 -0.15575728 0.16021091 -0.22368592 -0.024635453 -0.22912212 -0.23668167 -0.012223036 0.08837497 0.10732165 -0.06780067 -0.25278455 0.13687988 0.054892547 0.1144445 -0.26569775 -0.05274152 -0.00903737 0.095006205 -0.2657769 -0.027980443 -0.09962216 -0.18375 -0.1960239 -0.22025771 0.009960896 0.06913699 -0.078566335 -0.04688175 0.10351446 -0.04740371 -0.17649494 0.0663017 -0.09653962 -0.0657769 0.06206448 -0.024936493 0.082096085 -0.04169766 0.12158256 0.15869352 -0.1360661 -0.11562716 0.001786419 0.23307362 0.16813071 0.032263074 -0.1991393 0.030910311 0.21341874 0.020755101 -0.28363198 0.3074172 0.053921502 0.06406129 -0.18277624
1975-2 -0.05385516 0.08557352 0.14719106 -0.098732054 -0.16970076 -0.10077452 0.15773387 -0.11445084 0.068420514 -0.0664667 0.16895123 0.101577856 -0.15104981 0.040040422 -0.23991448 -0.104525596 0.0010137525 -0.07413947 -0.02517529 -0.21448486 0.03024462 -0.16221577 -0.2275875 -0.08809587 -0.02113598 0.23071145 -0.22036229 -0.1057259 0.10249796 -0.15270227 -0.010496058 -0.053146143 -0.0876492 0.0049921074 0.020162396 -0.17188305 0.20189223 0.15244026 -0.2887851 -0.14792249 -0.17212555 0.03775991 0.04118717 -0.19885303 0.074114636 0.0033073444 -0.08447395 -0.11802322 0.11628303 0.04791742 -0.24483405 -0.06775417 0.017437954 0.028483868 -0.0634659 -0.03506481 0.21446192 -0.28050718 0.11820388 0.056675855 -0.036365386 0.077541694 0.32551986 -0.21053742 0.02783987 0.04464369 -0.08490058 0.028018227 -0.16641997 -0.1584304 0.0011456171 0.22455367 0.343035 0.11805892 0.038093857 0.016246015 -0.11501925 -0.123223804 0.37700048 -0.21357715 0.13467327 0.12782891 0.14500572 0.19643961 0.13362686 0.14341769 -0.28086695 -0.22289155 -0.036128633 -0.21242876 0.13899207 -0.12036794 -0.11026093 0.08661704 -0.118749626 -0.28178737 0.006622296 0.13652462 -0.21149452 -0.2837742 -0.12653285 0.049418535 -0.23689185 0.04861586 -0.03221128 0.14217648 0.01813108 0.31644982 -0.19281965 0.035663564 -0.03692554 -0.047764547 -0.033081803 0.056603868 -0.20561999 0.12995325 0.18504617 -0.35014072 -0.14886494 -0.17697729 -0.13420641 -0.13761175 -0.076871604 -0.021118414 0.055338617 0.06646235 0.0036124163 -0.08564743 0.083703816 -0.053454854 -0.14605749 0.13989687 0.35856393 0.24937275 -0.056756362 0.03202468 0.0024487681 0.07631708 0.10299356 -0.08134884 -0.26206136 -0.12523906 0.19349064 0.23416302 0.027407024 -0.22864677 -0.00022459352 -0.049287315 0.055035796 -0.22420485 -0.23712116 -0.004357342 0.142764 0.16427542 -0.19565065 -0.07573522 0.17271592 0.47991812 0.24719827 -0.1935648 -0.15166877 0.041148096 0.28030688 0.1071007 0.0972522 -0.20547698 -0.23718467 -0.18924446 0.027352896 -0.16435008 -0.15092973 -0.11246792 -0.042253327 -0.14203398 -0.008491735 -0.09770732 -0.06879026 -0.24681413 -0.20397837 0.07943827 -0.10441182 -0.2460041 -0.14459494 -0.05535375 0.06407625 -0.37258255 -0.017984886 -0.29041627 0.26981357 0.027742816 0.11204868 -0.0640204 0.066864006 -0.05656866 0.008579519 -0.15162383 0.16399781 0.0024364644 0.20205684 -0.10382023
6768-6 -0.21672522 -0.21851505 -0.08675943 -0.04524098 0.08677516 -0.16554973 0.00937566 0.07997198 0.21115488 -0.041500214 0.16407534 0.10797042 0.1326973 -0.098498076 0.12552899 -0.020070786 -0.03505843 -0.3439604 0.0705401 -0.07340971 -0.31598708 0.09432683 0.33233604 0.012568196 0.0048268484 0.06994578 0.001937373 -0.25395554 -0.1745471 -0.14021873 -0.028100122 0.20634809 -0.33487767 -0.2991002 -0.040093273 -0.25223023 0.22570732 -0.041906524 -0.035971723 -0.0782594 0.16402039 0.17467688 0.10038511 0.07640787 -0.086676046 0.22009726 -0.25172117 -0.0437763 -0.11722576 0.10200585 0.15974535 -0.038768668 0.20447709 -0.06694378 -0.19216697 -0.0057585426 0.12377394 0.16047315 -0.11049322 -0.045731373 0.008795323 0.09026429 0.0776342 0.03448267 -0.2837994 0.08902316 -0.09189992 -0.004230524 -0.2322923 -0.09738327 0.07459525 -0.115946226 0.02470454 0.04912052 -0.064355485 -0.1144308 -0.22858214 -0.24336664 0.076967806 -0.14132068 0.27312 0.23597422 0.17410675 0.09346507 0.16449189 -0.124197744 0.0722644 -0.16478984 -0.069087505 0.049325015 -0.16202097 -0.20026262 0.18149512 -0.09266208 -0.022705728 -0.21682753 -0.07299922 0.21394973 -0.13778144 -0.24694262 0.102201514 -0.21079801 -0.18737519 0.06339632 -0.0420417 0.31237662 -0.042749487 0.22447605 -0.18316068 0.045384996 0.15218829 -0.44784486 -0.12612526 0.19968371 -0.1751788 -0.14348821 -0.2504152 -0.35024792 0.08653276 0.20393662 0.01457827 -0.14368315 -0.029857973 -0.2241591 -0.19303586 0.21507348 0.25537896 -0.1130979 0.012007233 -0.16444364 0.13713288 0.046898864 0.173044 0.15996155 -0.14901005 -0.28052935 -0.06645991 -0.1334156 0.15385239 -0.027672512 -0.3067396 -0.028530039 0.18928513 0.20723554 -0.07754025 -0.17967558 0.03493115 0.048988882 -0.0933947 -0.17880392 -0.04388802 0.029891057 0.33248597 0.14900512 0.03138845 -0.2826377 0.21416138 0.25181082 0.17109549 -0.18095422 -0.0005224161 0.047307763 0.39546022 0.055084888 0.06238424 -0.10790634 -0.107226305 -0.24798244 0.099433854 -0.038876012 -0.06845051 -0.038586475 -0.30581224 -0.063634425 0.09088471 -0.008186323 -0.1048374 0.05090487 -0.3303687 0.06437211 0.08875177 -0.062245686 -0.1290824 -0.009938867 0.07446089 -0.22472516 0.07131117 -0.11142809 0.08129663 0.06897345 0.10614197 -0.033752553 0.020611726 0.17592053 -0.14416938 0.09893975 -0.057122055 0.03867251 0.035674807 -0.0973058
736-9 0.1007961 0.115648955 -0.06002987 0.194712 -0.16716732 -0.033437762 0.1202305 -0.4002174 0.026888676 0.16747159 0.051395856 0.22394378 -0.036702745 0.1343213 0.21612795 -0.03920527 -0.013830315 0.15381986 0.06323043 -0.13962683 -0.081804216 0.08055939 -0.13065052 0.05375245 -0.058728464 0.015074488 -0.23447862 -0.3541938 -0.1565536 -0.10942386 -0.2337738 0.2682717 -0.016398579 -0.1455338 0.08568784 -0.021038193 0.24060254 -0.21149269 -0.0066886744 -0.09484754 0.13470219 0.08667601 0.1660112 -0.2592928 -0.24699587 0.17607784 0.1841502 -0.33992824 0.28088504 0.23747283 0.27680427 0.040430788 -0.0150962025 -0.23777372 -0.18922241 0.15237686 -0.06603123 0.17803821 -0.0009245919 -0.000957712 0.083206974 -0.20363866 0.13425884 -0.12251982 -0.1181851 -0.38172334 -0.011891311 0.020013433 -0.1723398 -0.05387554 0.26968905 0.09958869 0.04351138 -0.22434764 0.03790759 0.07536084 -0.21433488 -0.0833158 0.31980547 0.1877868 -0.17773752 -0.01678371 0.18221901 -0.23913047 0.2196275 -0.24093385 -0.21406455 -0.23986058 0.011885044 0.17884317 0.05585923 -0.30303934 -0.21065211 -0.19024079 -0.09280903 -0.14357097 0.048805065 0.19845629 0.009541725 -0.22901395 -0.16170089 -0.1816419 -0.043961193 -0.23821731 0.057196777 0.0031753844 0.07668132 0.31916243 0.438555 -0.17284507 0.22286661 -0.07025182 -0.17626035 0.218737 -0.09080947 -0.040760126 -0.05592493 -0.060892757 -0.25247598 -0.0020916204 0.27305493 -0.31931138 -0.10689748 -0.26790026 -0.18125644 -0.039614446 -0.1887302 0.109621346 0.033465836 -0.034534644 0.068330176 -0.06067213 0.055383097 0.275601 -0.16934104 0.028941052 0.17576717 -0.18550372 -0.031794764 -0.17593072 -0.47146812 -0.04754993 0.014508961 -0.2152036 -0.053984016 -0.07651329 0.00015019614 0.009269472 0.1320517 -0.23463146 -0.29055253 -0.18868929 -0.021722576 -0.0047358824 -0.3722449 -0.60666525 0.10576993 0.13901544 0.30778942 -0.14323077 0.15917285 -0.22136222 0.06844799 0.060129937 0.2730081 0.026386047 0.047450405 -0.11601139 0.006883105 -0.3029904 0.1781977 0.027488608 0.005667424 -0.025994767 0.103019044 -0.03815677 0.17372453 -0.13290827 -0.19904129 -0.09040357 -0.09676249 0.024884276 -0.22504246 -0.10075172 0.13506046 -0.08636823 0.03716587 0.030642038 0.02450981 0.27451143 0.18446384 0.024224646 -0.22196035 0.15554735 -0.013440818 -0.10452028 0.27716148 0.08289092 0.35637644 -0.19976957
770-8 -0.090521 -0.04798595 0.17310426 0.27343684 0.07988764 0.012064883 0.24727082 -0.15728891 0.27502394 0.08620895 0.08478594 0.051499702 0.013729398 0.07503814 0.14075302 -0.08079493 -0.25431034 -0.13681205 -0.008698163 0.1292965 0.18171744 0.39915627 0.10290119 0.04742517 0.023595287 -0.22201626 0.19070455 -0.15417643 0.11036191 0.097564556 -0.05375376 0.12982917 -0.19262646 -0.051700264 0.16843447 -0.09142887 0.15997416 0.09111697 -0.0586824 -0.2410111 -0.13522059 -0.09821015 0.1376444 -0.26533252 -0.26017419 0.19601296 -0.04894405 -0.08861803 0.4354941 0.15049082 -0.090797596 -0.06212916 -0.24501888 -0.30131787 0.07659079 -0.0029431363 0.0127795525 0.13910867 0.16244628 0.38403946 -0.110394426 -0.13675348 0.3206191 -0.22378936 0.040568653 -0.2721549 -0.024331883 -0.04522518 -0.12558785 -0.089719035 0.34982103 -0.0048009492 0.3650135 0.023378063 0.07474923 0.1018132 -0.23906232 -0.17010415 0.15188609 -0.11735575 0.12127196 0.17921086 0.3085199 -0.2632053 -0.052574914 -0.14323595 -0.23831898 -0.1282047 -0.058867723 0.26622623 0.16159941 0.047174037 -0.15109187 -0.1358419 -0.14550035 0.04917159 -0.2912055 -0.15391788 -0.28758574 0.17327967 -0.23904267 -0.16620676 -0.045320705 -0.16385937 -0.15417041 0.32839048 -0.33180222 0.27834338 -0.009321409 -0.0877095 -0.065372445 -0.18090723 0.04241784 0.17354687 -0.13077901 -0.15430208 0.05156715 0.02942285 -0.27034163 0.36329916 -0.21155356 -0.16638456 -0.22080432 0.042885184 -0.07048368 0.057129238 0.09559852 -0.036362864 0.09096132 0.040051974 -0.03814135 -0.30835068 -0.03470601 0.23074496 -0.44221854 0.053601574 0.04057422 0.08248696 -0.09999922 -0.09282618 -0.3441422 -0.27865326 0.06351983 0.06762781 -0.022988098 0.18807834 -0.023153154 0.15138555 -0.033446517 -0.28606853 -0.30525428 -0.3046163 0.22579224 0.09067474 -0.2530294 -0.39558598 0.2796234 0.22922371 0.20196815 -0.065185666 -0.057870604 0.100992866 0.3508962 -0.09474792 0.00846368 0.09582903 0.24946052 -0.15848552 0.14820853 -0.15959927 0.03109196 0.038306158 -0.021548524 -0.1256775 0.07945333 -0.02507534 0.22700748 0.061599944 -0.16945897 -0.028994033 0.15616755 0.2084101 -0.086620584 -0.1720597 -0.09104299 -0.0954099 0.0060413023 -0.11148584 -0.12134032 0.41259322 -0.00036067783 0.1212397 -0.096739806 0.21677917 0.0371435 -0.14835477 0.29964888 -0.17248094 0.26876578 -0.19676225
5905-5 -0.17297196 0.039398346 0.020688066 0.345552 -0.25004405 0.16257167 0.22292235 -0.39586943 0.3130914 0.094275914 -0.10334285 0.18784115 -0.23419316 0.019047113 0.24190599 0.17803979 -0.29713485 0.033249933 0.008442349 -0.071448795 -0.021013325 0.13685808 -0.04259956 0.101504155 -0.18388256 -0.099406496 0.222416 -0.37390694 0.02977312 -0.13917671 0.03574813 0.14237916 -0.032441765 0.08294285 0.12680417 0.08781516 0.18713593 -0.08917267 -0.038932007 0.093680315 0.034412004 0.02523194 0.12748015 -0.0011306871 -0.15582979 0.26715758 -0.06371946 0.00365708 -0.025435893 0.13154754 -0.016635384 -0.044720203 -0.2299413 -0.09410617 -0.08095759 -0.08150992 0.013230141 0.07815782 0.23790877 0.18139194 -0.06293914 -0.19433178 0.022846375 -0.003442741 -0.2441642 -0.12637629 -0.2289367 0.15066655 -0.06345499 -0.24164791 -0.0009150062 0.29651648 -0.023500629 0.022356164 0.120872684 0.12919056 -0.1039322 -0.11849621 0.36913574 -0.03302926 0.3904282 0.014193882 0.5934816 -0.013390324 0.23037554 0.320711 -0.12346553 -0.12854803 -0.22929093 0.07479819 0.1280209 0.07989031 -0.05426253 0.028633919 -0.04472979 -0.004245529 -0.0804493 0.112251535 -0.012843563 -0.18399367 -0.09065172 -0.009532151 0.2083414 -0.3347098 -0.093297884 0.03982571 0.217928 0.0020094742 0.18857345 -0.15412894 0.09860898 0.026551604 -0.42452747 0.39467442 -0.27620178 0.103136435 -0.10774009 -0.02600065 -0.3645364 0.07220534 -0.06506143 -0.44239476 -0.11000855 -0.09161883 -0.43538544 0.16625695 0.25503227 -0.032722544 0.05153675 -0.09391467 -0.049907964 -0.3224456 0.34441102 0.17148985 -0.04416294 -0.0006058907 0.016335344 -0.12378564 -0.107370354 -0.12525262 -0.19315004 -0.33501783 0.29852563 0.065386936 -0.10570309 0.045087565 0.034372795 0.05245271 0.05214221 -0.29255867 -0.2856804 0.0035614762 0.13150544 -0.009938002 -0.3752502 -0.5207656 0.20150502 0.21731268 0.23220007 0.04469052 -0.19565691 0.109658815 0.13608246 0.004804723 -0.10895098 -0.07005238 0.2225855 -0.11358219 -0.07601441 0.042714886 -0.056152493 0.0775769 -0.34815115 -0.0053637885 0.10933425 -0.032047506 0.26161888 -0.018551854 -0.008451224 -0.21256769 0.031045565 0.15775375 -0.2973001 -0.12973113 0.19754198 0.16843343 -0.29829368 0.036160488 0.04932547 0.1858458 0.1303567 0.080997616 -0.073979214 0.11371503 0.011600699 -0.010715684 0.14398418 -0.17768097 0.10926148 0.041112512
26450-7 0.05559512 -0.120135695 -0.18286312 0.017524576 0.08106802 0.083318196 0.38334426 -0.026663193 0.03669945 0.08373244 0.16863872 0.14377993 0.09107856 -0.057330176 0.04142685 -0.12784848 -0.28708407 0.058353066 -0.044223964 -0.30800313 0.05387432 0.20815755 -0.1313829 -0.077910826 0.020695658 0.029382965 0.27841464 -0.39850608 -0.047072362 -0.12176212 -0.035261262 0.2624169 -0.01996057 0.014319803 0.083201885 -0.06001696 0.2950211 -0.13559286 -0.23557757 -0.24416427 0.17134368 0.06285767 0.09859283 -0.18964233 0.022333186 0.17130934 -0.13555154 0.049824942 0.26051196 0.123201594 0.06398977 -0.19883922 -0.03691651 -0.042329226 0.11140439 -0.0069494057 0.027981715 0.074171826 -0.14329994 0.19109833 -0.3240209 -0.004869361 -0.04106867 0.008518983 -0.08940208 -0.19008483 0.1847791 0.11619079 -0.058077306 -0.12553664 0.04947225 0.26701573 0.109985046 -0.21523473 0.36347237 0.21308747 0.04724393 0.07417938 0.24007924 -0.078415304 0.3013154 0.09597057 0.33541864 0.10226034 0.30074388 -0.21957864 -0.15817526 -0.13703537 0.0038840116 -0.09154735 0.20888546 0.009585359 -0.106722146 -0.031978328 0.17913604 0.023265027 -0.10460376 -0.18479216 -0.19590567 -0.24993443 -0.19888194 -0.28459406 -0.16443962 -0.31384224 -0.13850622 0.06801297 -0.12943737 0.025892913 0.09667267 -0.29512438 0.1275257 -0.056406524 -0.22495508 0.14011504 -0.050769355 0.10655033 0.14412366 -0.090502165 -0.16073148 -0.12553392 0.038377542 -0.24559419 -0.19388561 -0.18678847 -0.24975306 -0.055914253 -0.0028611885 0.150499 0.064349696 0.057467293 -0.3215571 -0.03226733 0.02289578 0.34101388 -0.13971649 -0.10400652 0.12524226 -0.11111132 0.15190789 0.047463134 -0.41321018 -0.10396472 0.07409733 -0.14485873 0.022024244 -0.06975812 0.2903573 0.4538261 -0.12692197 -0.48995093 -0.10951542 -0.08633013 0.1843945 0.095294446 -0.23596963 -0.43927616 0.12487281 0.13100624 0.29491353 0.014277353 0.19805162 -0.090321004 0.2081079 0.07946022 -0.28120956 0.15553662 0.0471092 0.047101617 0.06050912 -0.42698476 -0.022071311 -0.098525874 -0.011811889 0.20986181 -0.053140603 -0.13237642 -0.049386024 0.17266296 -0.08622009 -0.32131368 0.18069114 0.47518185 -0.41363963 -0.17415915 0.20533292 -0.010721393 -0.062179398 -0.19676977 0.056849554 0.37368044 -0.089301415 0.05277528 -0.052118916 0.3154948 -0.13395897 -0.07042649 0.034520935 -0.28048205 0.1026348 -0.043494567
30180-4 -0.07410204 -0.08735051 0.09923003 0.13917288 0.1976719 0.056129932 -0.10120006 -0.20108901 0.090682425 0.069883674 0.12537721 -0.110433616 -0.11665162 0.17156069 0.33573666 0.052835904 -0.29161394 -0.09148396 -0.0089566 -0.08193358 0.24253368 0.29778787 -0.0861552 0.042783543 -0.038427975 -0.23814149 -0.013204924 -0.11532467 0.028864704 -0.07057065 0.2579668 0.07879386 -0.045004245 -0.16940773 0.15949218 0.07286184 0.18407583 -0.0864317 -0.1933508 -0.2083938 0.054410215 0.3357022 0.29155985 -0.12602371 -0.3467548 -0.04472579 -0.04125394 0.09222745 -0.056689825 0.11105669 0.23958555 0.10817196 0.033121284 -0.17397894 -0.006169363 -0.18996012 0.29517806 0.11793027 -0.1425864 0.10914801 -0.054330375 -0.0622539 -0.024981786 -0.2224864 0.0027097494 -0.15860826 0.08907924 0.1477602 -0.2539843 -0.16202824 0.13221975 0.60659707 0.13689765 -0.19253393 0.36275527 0.16776173 -0.07043551 -0.22507249 0.37765747 -0.04020486 0.32532537 -0.28288874 0.30369648 -0.1089071 0.20051199 -0.047523327 -0.13570271 -0.16200373 0.03562129 -0.022287728 0.15690976 -0.24424033 -0.032030776 -0.20527846 0.033407465 -0.06502718 -0.025185341 0.105839364 -0.28849763 -0.1499522 -0.102846175 -0.019576093 -0.3460766 -0.226218 -0.1052835 0.1950523 0.07031618 0.17992611 -0.04909728 -0.19468461 0.20042022 -0.04294397 -0.2976988 0.19899881 -0.1688762 -0.11391246 0.063648134 0.22216177 -0.008900798 0.20090826 -0.06492034 -0.3538796 -0.06354835 -0.24770781 -0.07497091 0.025623623 -0.003146387 -0.22376592 0.02711551 0.23271804 0.0123556275 -0.13462117 0.046492424 0.21804415 0.049035743 0.055729017 0.34801617 -0.030828983 0.019433497 0.083801374 -0.4183397 -0.27112696 0.042146686 0.033931892 0.23907365 0.18711007 -0.09370759 0.05781194 0.023361556 -0.069720894 -0.15914117 -0.28245962 0.08616806 0.08922287 -0.22878593 -0.46785772 -0.008571681 0.014649373 0.23981784 -0.2092249 0.031184003 -0.06424065 0.348138 -0.20738293 0.05539762 0.12385158 0.20756808 -0.1225578 -0.22815076 -0.17657423 -0.109865464 0.14504747 -0.08730108 0.065512925 0.29559705 -0.2764773 0.12104756 -0.1521178 -0.1410146 -0.18651257 0.13095732 0.031688944 -0.12604345 -0.30946425 0.019788915 -0.32245526 0.0115619395 -0.22565609 0.022252634 -0.112488925 0.12488519 0.11254317 -0.30968478 0.016144713 -0.09424731 0.037577268 0.21966487 -0.33996746 0.13358779 0.066897735
19123-9 -0.13381456 -0.14723088 -0.10205436 0.082609884 -0.014434642 -0.13926303 0.22762671 -0.10944897 0.14173265 -0.17715465 0.14851621 -0.15618505 -0.09422592 0.23109318 0.0605725 -0.036531825 -0.09996449 -0.16771972 -0.05165603 0.024920354 -0.057458695 -0.037180644 0.24208081 -0.16247198 0.1526042 0.17577733 0.042588916 -0.054076277 -0.094946764 0.060232103 0.003457327 -0.06338045 -0.1634814 -0.06558 -0.29048815 -0.13847011 0.020321822 0.08957643 -0.117548205 -0.041288815 -0.09349681 0.051827677 0.24172194 -0.1067068 -0.099056065 0.30968398 -0.036532775 0.056408785 -0.11604401 -0.047942027 -0.21572979 0.115410246 -0.017144164 -0.11420373 -0.19333485 -0.16879022 -0.07096304 -0.3380609 -0.09279531 -0.13128783 0.039577767 0.03414713 -0.0793137 -0.068362206 -0.15798493 0.024347004 0.046081983 0.03301253 -0.0012256766 -0.23344837 -0.114377536 0.19508709 0.14156257 0.07910719 0.0148130115 -0.09088483 -0.25461367 0.014438493 0.23646928 -0.04358668 0.24242195 0.17012183 0.3548017 -0.16715887 0.042211886 0.039011758 -0.3815916 -0.12760699 -0.082004234 -0.07171163 -0.052834544 -0.05053001 0.043965235 -0.021240946 -0.16111617 0.06779328 -0.044515025 0.02559761 -0.046436366 -0.16807213 -0.0075203017 0.0068955957 -0.1253284 -0.1475734 0.22761306 0.08512784 0.14174601 0.03375762 0.05278225 -0.14128864 -0.17926005 -0.11274837 0.09635376 0.0018734345 -0.09883984 -0.04760249 -0.053335965 0.03383885 -0.24899143 -0.07921641 -0.10069726 -0.15225297 0.18014756 -0.15522483 0.18539594 0.076305285 0.056986388 0.045005444 0.12047557 0.10346316 0.13671616 0.11530261 0.19274963 0.11406317 -0.24546596 -0.1988773 -0.040632986 -0.1811118 0.12485191 0.038185917 -0.2956063 0.050082162 0.06561202 0.18119963 -0.086672306 0.012691134 0.07256336 0.07914757 -0.22335249 0.028553316 0.113398574 0.020938948 0.04562069 -0.027245492 -0.2069999 -0.3197667 0.060596906 0.08360516 0.20526162 -0.11056211 0.16348888 -0.2575472 0.18519287 0.13181609 0.1151243 -0.009767247 0.111942545 -0.13257517 -0.1202039 -0.32601893 -0.037411615 0.07702121 -0.12846084 0.12816489 -0.0220755 0.27663657 0.0013769543 -0.09075591 -0.104045704 0.078658566 0.1337555 0.041531995 -0.07135631 0.08866104 0.18643774 -0.1334114 -0.020643346 -0.11944297 0.15455715 -0.0043921857 0.104039766 0.1210085 -0.04128478 0.026416192 0.08131133 -0.32222414 -0.19033054 0.04707778 0.14387138 -0.2433109
32623-1 -0.12279947 -0.17937414 0.03348075 0.19323015 -0.04520869 -0.022145357 0.17100295 -0.15835845 0.35487705 0.17485908 0.069077946 -0.16198115 0.013615289 -0.017829346 0.11180728 0.029137006 -0.2297645 0.08978096 -0.022316044 -0.12303483 0.098668605 0.23677725 0.028372562 0.091956094 -0.34301087 -0.11134549 0.2211625 -0.27400848 -0.041389193 -0.110891156 -0.06406059 0.35598883 0.03790385 0.031624418 0.117437854 0.02116093 0.2515886 0.08231643 -0.013667617 0.012642125 0.09041936 0.176457 0.17114922 -0.18669763 -0.24736653 0.0993794 -0.06782285 0.08637893 0.26885274 0.03997826 0.13645303 -0.001583166 0.16216153 -0.20906572 0.0678665 0.11986241 -0.09802837 -0.14755414 -0.18366477 0.074254565 -0.1708712 -0.15001771 0.2551275 -0.09771852 0.09762553 -0.056445137 0.17724155 -0.050730117 -0.2536426 -0.038220033 0.15346237 0.31728765 -0.00968638 0.08081618 0.18297437 -0.024421403 -0.228764 -0.0033406052 -0.046576772 -0.0826383 0.22785401 0.098914966 0.29180744 -0.16875796 0.08861107 0.08314132 -0.041224577 -0.23794384 0.10104419 0.08675864 0.18457057 -0.22727674 -0.118859835 0.071127184 0.059477158 -0.13764863 0.00696623 0.0722787 -0.13512425 -0.24578348 -0.065655805 -0.15420014 0.097000256 -0.044252906 0.05380077 0.15301321 0.07683324 0.042719502 0.07986034 -0.26242357 0.03969718 -0.06912133 -0.2055283 0.14528714 -0.29612225 0.2638332 0.12785706 0.054265466 -0.088708736 0.15563773 0.022298621 -0.046526644 -0.15632166 -0.20815924 -0.21488836 0.053148866 -0.021740943 0.27206787 0.036161114 0.05855946 -0.07167323 0.06334319 0.32185763 0.13369459 -0.22165552 0.10401444 0.12731531 -0.10950794 0.039562777 -0.100646205 -0.19117798 0.06735766 0.18611707 -0.0015319921 0.08022455 0.09486761 0.31460732 -0.16853032 -0.02594745 -0.23291098 -0.1853673 -0.0073971064 0.1765005 0.02502326 -0.32321358 -0.20534588 0.27061695 -0.010255745 0.3816328 -0.23923674 -0.023246882 -0.05914766 0.24923225 -0.18098672 0.15657984 -0.07010336 -0.09064256 -0.18399522 0.0136962645 -0.22924249 0.19554476 0.0765646 -0.016090238 -0.14180149 0.2802904 -0.10404446 0.17859729 0.109474756 -0.10580943 -0.23824032 0.14447786 0.07846896 -0.18223892 -0.115989916 0.024325605 -0.09610431 0.040576372 -0.28843936 0.038092107 0.060953107 0.14746734 0.12744823 0.10554198 0.20818324 0.023808105 -0.1875498 0.31560475 -0.100434154 0.1427693 0.050421428
48767-8 -0.07793421 -0.15171675 -0.15760016 -0.2386477 -0.021339249 0.019592438 0.07617525 0.010855359 0.023110677 -0.15092836 0.086903535 -0.37382236 -0.21377783 0.41164866 0.13470846 0.04568414 -0.16774243 -0.09526118 0.04735325 -0.05826868 0.15212679 0.24105623 -0.035357073 -0.28336245 -0.16187727 0.15679751 -0.1329073 -0.042690013 0.004259739 0.13155465 -0.046072684 -0.05943137 0.093019485 -0.058064558 0.09771428 -0.30287516 0.08703778 0.13159408 -0.19263576 0.12827444 -0.19786829 0.12832463 0.15036565 -0.35571933 -0.6501474 0.4328188 -0.42277268 0.07215132 0.21639463 -0.027621178 -0.3138956 0.030841146 -0.1562936 -0.04831282 -0.0033786928 0.23930103 0.1436921 0.10519796 -0.11182535 -0.23115447 -0.014749679 0.15027216 0.036287937 -0.11169149 0.033644658 0.015797935 0.050306965 -0.0753592 0.059395295 -0.015000345 -0.0016352825 0.046568695 0.16662936 -0.07016625 0.105248824 -0.20193939 -0.28883407 -0.0027769406 0.10425638 0.048963528 0.2923673 0.09502838 0.3013742 -0.116364725 0.046683084 -0.28225905 -0.26656508 0.08978249 -0.28916523 -0.030272441 0.33864176 -0.14480807 0.094198704 -0.004338056 0.056647968 0.027872045 0.27435803 0.043952532 0.017877834 -0.06587681 0.07833666 0.032419983 0.106818534 -0.35852304 -0.20904645 0.11046922 0.107804686 0.09871263 0.18978955 -0.10571872 -0.0040389253 -0.18860699 0.019971585 -0.0306236 0.030047115 0.025071172 -0.3882499 0.2571113 -0.0447565 0.01990242 0.026942285 -0.24879609 0.20084475 -0.17331235 -0.2844743 0.13095559 -0.053618856 -0.073189 0.16275659 -0.33051762 -0.037541296 0.41790602 0.037173353 -0.00916137 -0.1298835 -0.03778505 -0.3153976 0.060897723 -0.15849645 -0.22351682 -0.22941607 -0.08208704 0.30484408 0.034251284 -0.116024725 0.25306708 0.09078293 0.32591578 -0.04874495 0.26580238 -0.110475235 0.0027232938 0.28249392 -0.02929417 -0.2759089 -0.26985168 0.1257331 0.1561146 0.39784145 -0.26815665 -0.06840346 -0.3083013 0.13175969 0.40389717 0.008955691 -0.1182274 -0.21820453 -0.075102784 -0.1981458 -0.0630054 -0.047194913 -0.08257736 0.15489435 -0.09054487 -0.2604713 0.05861966 -0.0017181871 -0.17275546 -0.08718543 -0.094049126 0.030437207 0.12537658 0.19022325 -0.032460924 0.3212298 -0.12607536 -0.07166747 -0.17146777 -0.04293606 0.17329735 0.05519613 0.18230684 0.048240956 0.07798323 -0.01798288 -0.072177686 -0.022819277 0.14666958 0.19979362 0.18862854
2532-0 -0.10475555 -0.15410413 0.054996748 -0.13494341 0.06545293 -0.087396 0.12001969 -0.19018412 0.038188435 -0.40633917 0.2333269 -0.0022214293 0.09248081 0.23842004 -0.08053963 0.12735575 -0.3926104 -0.018301025 0.17485712 0.15470344 -0.06882558 0.071000755 -0.123970285 -0.1818457 -0.026650202 0.09313098 -0.12988351 -0.12462989 0.11488139 -0.12534212 -0.18450601 -0.14826933 -0.12376948 0.02697409 -0.045211807 -0.34142113 0.352426 -0.072436035 -0.18750952 0.14911027 -0.09405373 -0.14116709 0.22816785 -0.021266174 -0.3635286 0.018315703 -0.26472574 0.20586534 -0.03511873 0.30568406 -0.05840389 -0.14761183 0.1553137 -0.056695152 0.038438305 -0.09404937 0.2638066 -0.3065229 -0.052316412 -0.018492432 0.13319764 0.03131921 0.05860764 0.09786573 -0.07720665 0.08591726 -0.12973404 0.22326906 -0.18498348 -0.121610545 -0.092385724 0.109846964 0.047209516 0.036385216 0.06690024 0.10944246 -0.37346727 -0.025907693 0.28597844 -0.25216553 0.23680359 0.08139943 0.21089207 -0.12612344 0.18688807 0.059417825 -0.057751793 0.036406394 -0.06879651 -0.0777767 0.015294224 -0.10748399 -0.015242268 -0.11073159 -0.025690878 -0.121767215 -0.065768555 -0.072690494 -0.038273867 0.009278028 -0.104734115 0.10336028 -0.1377584 -0.013204211 0.15809993 0.051733296 -0.09816516 0.17099015 0.121896684 -0.21136467 -0.12400621 -0.17332272 0.01119894 -0.019385556 0.051500518 -0.21510823 0.12452998 0.027155641 -0.33352348 -0.10051682 -0.04718523 0.120241076 0.47012222 -0.022066753 -0.019864649 0.061569173 0.01704699 0.065857 0.07585305 -0.13378775 0.17872657 0.11463194 -0.0200808 0.2162739 -0.10881037 -0.4337191 -0.112776235 -0.19441222 0.11128924 -0.12802832 -0.115879744 -0.097172014 0.05507892 0.08953204 -0.15494674 0.045435622 -0.07010445 0.058577616 -0.1008483 -0.30616057 -0.07603819 0.012965659 -0.09780331 -0.05499015 -0.13582115 -0.12439965 0.036520705 0.14454716 0.19356492 0.00016322023 0.16292094 -0.1934599 0.07026787 -0.0023232216 0.31562963 0.008127667 0.27935085 -0.1741082 -0.039841212 -0.13169396 0.010899517 0.06645047 -0.32602507 0.032354545 -0.18816793 -0.18982297 -0.13427031 -0.19654033 -0.22525685 0.0067739105 0.0894045 0.09908174 0.061880987 0.11098643 0.09284794 0.005814553 -0.06432843 -0.1981935 0.08740194 0.27729398 0.12783192 0.23619139 0.16541034 -0.08181738 -0.10303141 0.026909944 0.16164902 0.25914115 0.14062105 0.020855898
2777-1 -0.25552735 -0.106039986 0.01780845 0.098370425 0.026111204 -0.021653188 0.07551375 -0.059169583 0.023507645 -0.38499996 0.23550549 -0.10003101 0.1006921 0.14658934 0.048754256 0.040645614 -0.22428842 -0.06909886 0.13578662 -0.043691207 -0.3069627 -0.029285021 0.08146608 -0.053452 0.07731559 0.10601095 0.07632537 -0.039080318 0.16245112 -0.06836354 -0.043153267 -0.13481587 0.11957025 0.011585061 -0.03397683 -0.25976902 0.107372515 0.1282547 -0.21230607 -0.0798687 -0.12537205 0.06451709 0.1294145 -0.06228217 -0.22367395 0.254271 -0.21858598 0.044204976 0.11240361 0.12277945 -0.36224845 0.01008711 0.07818413 -0.17017862 -0.17065603 -0.13676345 0.150643 0.060819875 0.13553388 -0.049144287 -0.108313195 0.09286831 0.104104295 0.1381415 0.14021751 0.034498665 0.12699422 -0.07518422 -0.07407669 0.120550916 -0.18517037 0.16822362 0.024114233 -0.04541115 -0.016181199 0.07361991 -0.38000134 -0.15241729 0.18364158 -0.15836789 -0.09773848 -0.09071056 0.2529842 -0.15625195 0.20132373 -0.052002247 0.10926282 -0.13361289 -0.038431417 -0.026297376 -0.038401745 0.03162197 0.067450054 -0.013159066 0.045641616 -0.05174351 0.0620008 0.029808313 -0.05730344 -0.43188044 -0.016482607 -0.06384179 0.05049773 -0.2646261 0.10645817 0.039000098 0.19821474 0.075284645 0.011338795 -0.3072132 -0.09076998 -0.11530735 0.022431744 0.19901237 0.063953236 -0.033882443 0.057028998 -0.1498173 -0.13373101 -0.09119247 -0.055870056 0.016356792 0.23417234 -0.07494304 0.10590024 -0.037113033 0.01274901 -0.086569 0.04906819 -0.120329835 0.22164015 0.26370564 0.16413735 0.17075208 -0.17005508 -0.11971447 -0.059077594 0.07324216 0.04785064 0.038408175 -0.26090795 0.10546129 -0.0364405 0.2258434 -0.13331613 0.1561542 0.11117848 0.1405897 -0.0799894 0.06618168 -0.15668692 -0.17618762 -0.024008162 0.02803022 -0.32111412 -0.26061156 0.18298878 0.20711546 0.13054621 -0.06154723 0.07632109 -0.101795755 0.21355441 -0.20655964 0.065673746 -0.1701513 0.025925627 -0.10356261 -0.019397002 -0.21528447 -0.15780117 0.10424683 -0.11978851 0.18943186 -0.20724837 0.19697471 -0.011019268 0.072460085 -0.056326427 0.117678784 0.030706277 0.028891133 0.036604032 -0.03051776 0.14799143 -0.14816532 -0.04900483 -0.021450374 0.12468899 -0.076445036 0.057253025 -0.06381253 -0.21795891 0.08768919 -0.015425888 -0.0067434045 0.05063886 0.028577717 0.010189592 -0.18829697
2341-6 -0.1506685 -0.38512883 0.16072069 -0.24765857 -0.14628269 0.20151861 0.067263655 -0.22552969 0.19057032 -0.19371739 -0.06350105 -0.27004158 -0.07863022 0.14309567 -0.051872175 0.18274139 -0.18011339 -0.15492214 0.24446528 0.034439128 0.12127567 -0.0210086 0.022416709 -0.15177357 0.01929338 0.19160014 0.11871909 -0.24545647 -0.1879942 0.045002125 -0.062856376 -0.022718567 0.36735925 0.033400934 -0.18274663 -0.030250467 0.23727994 0.14802796 -0.12321338 0.16304657 -0.0861004 0.112244174 0.03946622 -0.13505246 -0.28330046 0.38261956 -0.46050745 0.023416784 0.08855956 -0.019271707 -0.16098358 0.08439827 0.026404476 -0.16667128 -0.20275547 -0.064415656 -0.0071391365 -0.04384646 -0.0933698 -0.121107325 -0.058077514 0.2104264 -0.1798578 0.13294925 -0.029061187 -0.009837749 0.20244835 0.00011618115 -0.16293068 -0.058902662 -0.11519773 0.07419522 0.098826915 -0.1585175 0.068362534 -0.24756858 -0.20692061 0.09565102 0.031352464 -0.13210744 0.29326063 -0.12239596 0.0976365 -0.16950141 0.087262064 -0.24975955 -0.36584523 -0.19250928 -0.3946487 -0.14654987 0.35933048 -0.089540765 0.02110424 -0.18367758 0.027102694 -0.10659823 0.0024335375 0.018446028 -0.10039759 -0.12746045 0.21651873 0.03669918 0.1914095 -0.14531714 0.07228071 -0.12876584 0.062156215 0.12009241 -0.0014949857 -0.39248136 0.057203658 -0.31483847 0.13271333 -0.10100989 -0.001705078 0.172757 -0.2594113 0.05761567 -0.11891933 0.08562138 0.012431705 -0.13888301 0.010701251 0.077738315 -0.14634831 0.28482926 0.18875232 -0.106645636 0.16322339 0.1445337 -0.047492515 0.23057985 0.061191905 0.1704198 -0.28977856 0.082248606 -0.29547223 -0.17192069 0.25099874 -0.05681681 -0.20984226 0.12255442 0.1902888 0.09287068 -0.004169452 0.14420511 0.17070022 0.24301203 -0.066685684 0.28152856 -0.17487508 -0.20439608 0.24687862 -0.010426043 -0.32968813 -0.052783605 0.016766679 0.22325282 0.41771612 -0.183429 0.00865911 -0.1629367 -0.034229252 0.29498488 0.18333888 0.047725897 -0.05721757 -0.21678165 -0.059911408 -0.1267161 -0.050738916 -0.23574927 0.12415467 -0.12969954 -0.12619655 -0.086242706 0.17179565 -0.0012032113 0.17719764 0.21879889 -0.20905969 -0.021530336 0.2271695 -0.069353074 0.36587015 0.010710472 0.29411602 -0.0014746547 -0.0048061092 -0.051896833 -0.058652915 0.12961684 -0.31904805 0.12660572 0.20032664 -0.119742624 0.3423366 0.10622793 0.03167247 0.049896393
33037-3 0.0062303976 -0.13733824 0.20317456 -0.018281262 0.07068487 -0.1709577 0.075636625 0.049181607 -0.008913223 -0.2002846 -0.10494418 0.07709315 0.042000175 0.098724455 0.17611736 -0.021204058 0.0293623 0.04573372 0.006767597 -0.05451123 -0.22693609 0.109919466 0.026470544 -0.0842405 0.084790915 0.182356 -0.0083116265 -0.24089499 0.11985572 -0.31863162 -0.1366107 -0.0149959205 -0.0034616645 -0.08128855 0.09626999 -0.19220527 0.2109521 0.094432466 0.1468741 -0.20761065 0.121658556 0.28685415 0.10385366 -0.018528003 0.07778877 0.16703564 0.017289141 -0.06673708 -0.11900275 0.0052513783 0.010760873 -0.10267695 -0.09796087 -0.1418596 -0.0604662 -0.031616118 -0.103091575 -0.18526894 0.081799954 0.09831775 0.16230704 -0.051770084 0.11473611 0.010249406 -0.13569179 -0.09277171 -0.04289212 0.06500674 -0.21163853 -0.15321268 -0.016712653 0.13240236 -0.06913446 0.023940383 0.012800094 -0.042962193 -0.24030355 -0.09682141 0.29816744 -0.2846445 0.05895338 0.24321759 0.24551634 0.016518096 0.10203734 0.09676885 -0.10737599 -0.18649152 -0.0038329882 -0.03805204 0.12103359 0.033566788 -0.17453767 -0.08345082 0.11838745 -0.2792179 -0.085579306 -0.057884745 -0.213683 -0.25763965 -0.06333883 -0.13007063 -0.12288294 -0.3009112 0.0795107 0.21989472 -0.10984611 0.06278218 0.05450869 -0.09099131 0.16702726 -0.05599955 -0.027405707 0.02740781 -0.030756615 -0.09458075 -0.045812983 0.039922073 0.1543153 -0.1934295 -0.27564657 -0.11772897 0.17922391 -0.057051424 -0.16082457 0.07772207 0.097883426 0.04819217 -0.17014526 0.15758246 0.080241166 0.22868071 0.32562175 0.16030101 -0.16706987 -0.038546037 -0.10275511 0.040910475 0.16287985 -0.0794439 -0.26072627 -0.19598456 0.046029653 0.055619847 0.037468508 0.08479533 -0.067748755 0.17666554 -0.11696886 -0.06894606 -0.20011613 0.069421925 0.3256081 0.21633375 0.050036456 -0.21912389 0.13402292 0.15277678 0.10409667 -0.24262258 -0.12224662 0.1005594 0.07823632 0.16048664 0.15347195 0.047584165 0.062049873 -0.30070502 -0.19199528 -0.21474847 -0.15816097 0.054421596 -0.12430042 -0.096036956 0.089804396 -0.1883821 0.07262543 0.028391892 -0.23099528 0.16350447 -0.119286165 0.012152983 0.018991543 0.026929475 0.13406123 -0.21408628 -0.034872193 0.037267335 -0.0058402154 0.12285061 0.06672856 -0.13018644 0.041679677 0.036803428 -0.07472537 -0.28977334 0.11068615 -0.014063629 0.10477105 -0.09688347
26474-7 0.020124389 0.028371317 0.08681862 0.26867235 -0.0717526 0.09005787 0.1382788 -0.20221736 0.24115889 0.18156195 0.014154602 0.029162686 -0.10127237 -0.017231517 0.05504815 0.15056331 -0.25144067 -0.15085864 -0.043452304 -0.5338345 0.20678896 0.20112745 0.117509186 0.045913678 -0.042566266 0.061400767 0.13359751 -0.31839842 -0.006540087 -0.19830672 0.01924851 0.18988964 -0.25910836 0.06925575 0.23274367 0.07450469 0.113251686 -0.12769328 -0.060386688 -0.013796865 -0.22938299 0.032710753 -0.16994372 -0.18748997 -0.08962684 0.040943433 0.02041821 -0.059964646 0.34600592 -0.05790875 -0.06943009 0.06124378 0.0745144 -0.19359906 0.008532155 0.034753747 -0.022632984 -0.2136668 -0.14809933 0.21150252 -0.36438346 -0.043116547 0.09351809 -0.32127503 0.10224787 -0.2743866 -0.12786062 0.17182027 -0.2502878 -0.029962502 -0.021750465 0.04814272 0.17227054 -0.16114718 0.12205368 -0.15771824 0.039897263 -0.07745765 0.27243114 -0.10736588 0.16364056 0.007653426 0.31360444 -0.13545845 0.36873147 0.008770467 -0.011607299 -0.53448033 -0.0012427458 0.24367166 0.09059177 -0.31936327 0.034458295 -0.045687843 0.1565074 0.11980337 -0.27009133 0.081692025 -0.16429196 -0.13241778 -0.02045749 0.022488829 -0.066190384 -0.19042723 -0.07543386 0.29109564 0.123116165 0.10052909 0.23964046 -0.22319043 0.19136302 -0.23448353 -0.04280671 0.085416906 0.014174208 -0.10450055 0.20728204 0.09105026 -0.15167652 0.17582637 0.18860112 -0.27810588 0.07377865 -0.21854182 -0.033194453 -0.061690323 0.105230816 -0.00940648 0.098084554 -0.23944324 -0.105652414 -0.049987607 0.14806376 0.147039 -0.050577924 -0.3798978 -0.05736646 -0.06952411 0.04337751 -0.09142661 -0.35055712 -0.08038907 0.013015856 -0.029234003 -0.1589553 0.22547303 -0.24829343 -0.041556068 0.053042386 -0.13719864 -0.5060351 0.13792667 0.08332834 -0.053363666 -0.03376833 -0.6258535 0.33426392 0.043965887 0.28418502 -0.046176862 -0.24164476 -0.19491504 0.04551744 0.024633136 0.02501173 0.22420873 0.15345065 -0.20534386 -0.009355002 -0.24366383 -0.06528936 0.31902856 -0.07462498 -0.11040751 -0.16630352 -0.21163106 0.104224 0.035002004 -0.045255795 -0.19898623 0.33593428 0.1652915 -0.40662235 -0.18053666 0.18374264 -0.2207834 -0.0142583735 -0.15127037 0.040340394 0.074201085 0.097044006 0.31510583 -0.25192744 0.20437722 0.053997647 -0.07201486 0.17235495 -0.2786374 0.17934076 -0.0704952
30451-9 -0.014092638 0.03185062 0.14050217 0.08865891 -0.18661386 -0.028629106 0.10986794 -0.29138774 0.16451086 0.11551425 0.032833572 0.028022416 0.015650801 -0.28011876 0.28632107 0.2469575 -0.42896405 -0.20186374 0.013446527 -0.3661006 -0.2654154 0.062171537 0.15531184 0.1871755 0.012982608 0.10038155 0.12542771 -0.25088105 -0.07595059 0.03516318 -0.1255813 0.07723739 -0.06925448 0.018705945 0.014507353 -0.018581528 -0.0009709626 -0.09300672 -0.12268099 0.021626925 0.101894505 -0.037532594 0.07263093 -0.3330257 -0.14337927 0.097363494 -0.0025325574 0.013814399 0.21065602 0.32081854 -0.039893337 0.011900701 -0.110820696 0.08520798 0.08962669 0.12924908 0.11147646 -0.11168762 0.18277928 -0.024946647 -0.2800281 -0.07395849 0.11160859 -0.13227592 -0.14835835 -0.0538174 0.0015936517 0.13264507 -0.31574324 -0.11192921 0.15187886 0.20555231 0.123441115 0.042267796 0.20072094 0.16809613 -0.266832 -0.24608865 0.3225403 0.1253907 0.19821663 0.21598797 0.09118266 -0.04680447 -0.16829927 -0.09543131 -0.12712786 -0.22766185 -0.12282172 -0.23640084 0.3249828 -0.33348894 -0.11092851 -0.083556764 0.122476116 0.028934369 -0.25951222 -0.08031115 -0.16727638 -0.09739599 -0.19154212 0.017954491 -0.23226026 -0.11018522 -0.31252068 0.177512 0.09809605 0.21841642 0.2758335 -0.30611062 0.23481558 -0.0055563343 0.038621396 0.1419573 -0.21824363 -0.10454429 -0.15572508 0.1728345 -0.27225417 0.081545375 -0.010895631 -0.051465 -0.10752467 -0.20924848 -0.34341264 -0.10456569 0.06754465 0.010952984 -0.120032996 -0.088029675 -0.008899994 -0.29251996 0.12119073 0.35621235 -0.16525353 0.035555165 0.21716106 -0.0037885224 0.0120372055 0.058119323 -0.47086474 -0.12968482 -0.012121344 -0.013013566 -0.0699749 0.2027924 0.15382455 -0.17328553 -0.0021473644 -0.33172092 -0.15341432 -0.16799366 0.2807925 0.08511486 -0.46161205 -0.2843315 0.1286436 -0.42293996 0.16496426 -0.0641623 0.022758594 -0.06568649 0.25446963 0.34221235 -0.2966091 -0.027089179 0.218902 -0.09448881 -0.065230876 -0.367157 0.0045851897 0.261218 -0.0010625179 -0.037630137 0.11668256 0.021850232 0.02349831 -0.010938109 -0.4720408 -0.27195254 0.11099378 0.0675604 -0.17233123 -0.19378763 0.067422554 -0.008071806 -0.062124297 -0.23595923 0.10148598 0.052437153 0.2605388 0.08975544 -0.1733783 0.07560183 -0.022899365 0.04800074 0.32182583 -0.27130848 0.2789654 -0.04765871
26484-6 0.19577824 -0.031793308 0.051159408 0.12424658 0.05207044 0.01869562 0.19194072 -0.005280938 0.20682035 -0.11863675 0.1699345 0.061155338 -0.20575634 -0.042139255 0.17598684 0.090528846 -0.2771269 -0.08728049 -0.07464224 -0.20208679 0.05541026 0.22484805 -0.2409138 -0.112176664 -0.04325261 0.14428154 0.13145214 -0.32597426 0.028165927 0.23692769 -0.13462508 0.3744063 0.00650828 0.04013669 -0.1285657 0.029069556 0.2876592 -0.07269374 -0.0788015 -0.34350777 0.09710451 -0.14529353 -0.0014509157 -0.024732616 -0.56509924 -0.1460918 0.064777024 -0.032677524 0.17741035 0.13350232 0.004440957 0.10677658 0.14783102 -0.19792838 0.006188316 -0.07239372 -0.015057104 0.02330625 -0.018958556 0.16795422 -0.20675614 0.0014921412 0.27801797 -0.098535374 -0.1725535 -0.3519423 0.057135254 -0.012416189 -0.26427102 0.017787222 0.18556322 0.111496724 0.23129874 -0.12717232 0.17829698 0.09313853 -0.3495222 -0.22293667 0.20737252 -0.05418079 0.1552893 0.12510835 0.3085499 -0.052538313 0.1682656 0.04428987 -0.3581741 -0.21540621 -0.099594444 0.1775836 0.19053385 -0.0068837106 -0.047982197 -0.08314396 0.11457491 0.051909838 -0.20630401 -0.083423875 -0.14574005 0.007933066 -0.25734767 0.000855132 -0.072203934 -0.16185242 0.06504093 0.22198716 -0.040726855 -0.019976422 0.12325205 -0.3131929 0.2119028 0.003973189 -0.30349624 0.15462948 -0.1451769 -0.12402103 -0.112291396 -0.24152248 -0.32454157 0.041979466 -0.07760584 -0.32746935 -0.1602644 -0.2331003 -0.26167145 0.11762784 0.09057332 -0.127481 0.097563826 -0.31540215 -0.07231968 -0.23341177 0.1380577 0.60410607 0.1293363 -0.07465889 0.16859482 0.01816884 -0.022189002 0.07506099 -0.16723819 0.058669876 0.12562211 -0.3431036 0.11631341 -0.057108894 0.16526142 -0.15024374 -0.046671238 0.043774594 -0.22698599 0.028272357 0.35981154 -0.2883276 -0.11050942 -0.47815818 -0.003169276 0.13139237 0.13688278 0.10521837 0.13864663 -0.09227853 0.12839203 -0.13280235 -0.049310617 -0.07023653 -0.24874885 -0.3420745 -0.22246577 -0.31248352 -0.18046409 0.4052715 -0.057418104 -0.09204126 0.20687667 0.0072443914 0.1878459 -0.0034806058 -0.08315317 0.0025024165 0.10450188 0.27253243 -0.10947662 -0.29523107 -0.051789057 -0.08094429 -0.05642627 -0.003834324 0.006653588 0.023980198 0.16387741 0.27999556 0.05664652 0.033943497 -0.06761711 -0.005958437 0.1365288 -0.34201244 0.28372505 -0.037812687
26449-9 0.30729008 -0.00015194622 -0.13381791 0.29535887 0.014094061 0.24822472 0.39450794 -0.09862261 0.13963127 0.38652998 0.19037522 -0.016991055 -0.10867366 -0.26084828 0.26385787 0.024029834 -0.15472166 0.031909447 -0.073309176 -0.1575693 0.07253546 0.33037114 0.06983755 0.038840704 0.1292892 -0.11978268 0.10762846 -0.48900393 -0.13980743 -0.06461267 -0.15907758 0.06835779 0.107922345 -0.12293991 0.17681865 -0.26168245 0.15751858 -0.00045440294 -0.25508678 0.032984093 0.18096839 -0.18308613 0.38232222 -0.046225607 -0.08378151 0.013075138 0.19275036 -0.011025281 0.32193804 0.2376974 0.022913542 0.09403385 -0.28396693 -0.045314696 -0.052759387 -0.04259733 0.109202586 0.0324234 -0.34674567 0.1511909 -0.13969423 0.16586019 0.071545824 -0.08754614 0.0695539 -0.3225896 0.17593211 -0.019540628 -0.23402824 0.026337955 0.028716108 0.2307991 0.14669362 -0.022680815 0.09689274 -0.12065069 -0.3028029 -0.03835193 0.25523323 -0.049540676 0.27590546 0.11705709 0.38585788 -0.08828342 -0.017490657 -0.03749273 -0.038560852 -0.09251697 -0.018501744 0.11946513 -0.07886828 -0.050976187 0.027385393 0.02417339 -0.013939318 0.04897479 -0.07858784 0.027624274 -0.063212246 0.16894569 -0.07614145 -0.13262494 -0.21970555 -0.43519872 -0.14238693 0.15131341 0.21356443 0.17870858 -0.003349866 -0.2194607 0.3283648 -0.27560133 -0.16327299 0.14840764 -0.008651551 -0.07227215 0.16121319 -0.21693964 -0.41825587 -0.0883367 -0.038622975 -0.24553463 0.1278376 -0.30330446 -0.25189337 0.06698635 -0.06882945 0.13201985 0.20289914 0.000403231 -0.012906888 -0.2237571 0.26966304 0.17076053 -0.15287586 -0.0025115092 0.14848825 0.12227405 -0.07734209 0.060974333 -0.30210733 -0.20140404 0.19886112 -0.07342236 -0.05124059 0.08719853 0.031062165 -0.016711053 -0.069805615 -0.26748338 -0.40424344 -0.074568026 0.02730661 -0.1166879 -0.27347985 -0.04546825 0.09505061 0.24192445 0.07075018 0.019152682 -0.07080467 -0.22972134 0.3877229 0.09835977 0.017810263 -0.09746651 0.13442436 -0.17581889 0.0037915283 -0.21350361 -0.24974221 0.19412348 -0.22307107 -0.06651543 0.17737767 -0.143193 0.27781162 0.011427239 -0.1841899 -0.015666574 0.05832481 0.014391887 -0.17716385 0.0042928946 0.29966822 -0.16679214 0.16504207 -0.16057988 -0.032505505 0.09117534 0.32016593 0.19098045 -0.29433236 0.18563825 -0.16756901 -0.15890633 0.40113494 -0.29558352 0.15317237 0.21805589
26444-0 -0.07616705 -0.23785628 0.07430119 0.23383747 -0.019400042 0.11055244 0.18207303 0.03672586 0.22957724 0.021853147 0.08173953 -0.03301731 -0.17122486 -0.007902459 0.27697206 -0.09344564 -0.3163302 0.008486311 0.10941125 -0.34574327 0.020164149 0.15781184 -0.25645754 0.070261255 -0.16810021 -0.0497053 0.23234853 -0.3012155 -0.12358738 0.062279493 -0.024085827 0.061571524 -0.052387048 -0.25452504 -0.028656216 0.06259458 0.20711693 0.042423084 -0.0069380375 -0.14292786 -0.090023704 0.014306645 0.19849329 -0.24801955 -0.34436396 0.05693766 -0.18800245 -0.13029894 0.19488636 0.19242267 -0.087539256 -0.31223932 -0.26315445 -0.035646826 -0.024024539 0.10808107 0.08007592 0.06954985 -0.18478289 0.0533641 -0.27050236 -0.118315056 0.031673867 -0.056954622 0.16021855 -0.13224022 -0.22622775 -0.014025242 0.022803111 -0.070507996 0.19583571 -0.09398452 0.01657987 0.057314176 0.09912739 0.093562946 -0.013557786 -0.0360956 0.66703284 0.16480595 0.29378974 -0.068421915 0.4089642 -0.17592655 0.13242765 -0.11108691 -0.16194318 -0.18480688 -0.060969114 0.0987446 0.033055637 -0.023907105 -0.25918618 0.16747202 0.07019634 -0.13967347 0.03403534 0.24183977 -0.2876924 -0.16866283 -0.12830998 -0.030078178 -0.2216987 -0.017171223 0.1781755 0.1699533 0.041021403 0.3682219 0.066328086 -0.22424413 0.35711595 0.01226173 0.23118891 0.29145655 0.09110055 -0.19362444 0.05440429 -0.15201733 -0.1243432 0.28987938 -0.03753247 -0.15978712 -0.28213605 -0.30773443 -0.22389637 -0.12542158 0.064338535 0.2864742 -0.061440527 -0.10645198 0.13375275 -0.0807803 0.35620955 0.26579744 -0.07607322 0.11403696 0.085735485 0.005078139 -0.059228342 0.023586424 -0.20042893 -0.14650533 0.03524496 0.023407096 -0.0026703407 0.065976016 0.15167378 -0.09049398 -0.06155333 -0.39243898 -0.20454012 -0.0015884695 0.09390487 -0.23296174 -0.23561908 -0.6270969 0.14318582 0.07247706 0.32464796 0.050406475 0.25105706 -0.15310667 0.20584163 0.073783375 -0.28764796 -0.017566025 0.13802232 -0.13977997 -0.07162925 -0.0117145525 -0.091706514 0.25368565 -0.15014271 0.17512313 0.075905316 -0.23424228 0.036229167 0.12433189 -0.08885493 -0.15732537 -0.13418446 0.10088138 -0.13555749 0.05741937 -0.014500164 -0.19524235 0.2327225 -0.13914838 -0.11495384 0.19348691 0.20214672 0.23682435 -0.145948 -0.03007588 0.0029452466 -0.26057488 0.17139229 -0.39905483 0.15204416 0.1720951
26499-4 0.2674254 0.090983205 0.0021292712 0.1000506 0.15727073 0.12152764 0.048128683 0.021972394 0.062235836 0.15070009 0.033287473 -0.0009555479 -0.031601492 0.07822666 0.15572545 0.28917268 -0.11732174 0.015160929 0.0056725163 -0.1534864 -0.19225182 -0.12064201 -0.036244836 -0.036354017 -0.051064894 -0.19298832 -0.01716761 -0.25072026 -0.064722285 0.026117673 0.0090183215 0.028370764 0.030009013 -0.03282241 -0.11660378 -0.205577 0.116688736 0.0062690764 -0.060553152 0.016259192 -0.11258834 -0.21635185 -0.059686977 -0.03151446 -0.06224985 -0.033885226 0.36341125 -0.16991012 0.106591985 -0.091962375 -0.12811966 -0.019870201 -0.13238996 0.11132409 0.11118456 -0.08877617 0.18253998 0.16985287 0.036573995 -0.025511632 -0.05669129 -0.101843275 -0.26827377 -0.00834379 0.12574637 -0.11346482 -0.050995387 0.1924548 -0.08083145 0.025511201 0.061039794 -0.08910243 -0.0068646697 0.027724953 0.12624921 -0.038515676 -0.14581749 -0.2199776 0.27198052 -0.03333779 0.11780462 0.013822407 0.17935039 -0.027009629 -0.24029388 0.10259121 -0.27220526 -0.18649273 -0.19169474 0.03405245 0.22057715 0.038831726 -0.055009358 -0.060124975 -0.063555226 -0.08593289 -0.29841653 -0.0408945 -0.1624772 0.099609196 0.10148208 -0.03716358 -0.015926845 0.14195685 -0.072134666 0.15897733 -0.021065759 0.22784342 0.2090106 -0.2251283 0.19389975 -0.2299876 -0.06166785 0.060781673 0.09937914 -0.1644662 0.18174629 0.05366982 -0.05896552 -0.07238779 -0.020469029 -0.14859237 -0.06068878 -0.21938339 0.004363293 0.13489309 0.020055251 -0.056409236 -0.0049693626 -0.244636 0.0774407 -0.020256702 0.11494976 0.08842327 -0.0011057187 -0.21235907 0.05035607 0.12562557 0.12823427 0.0792024 -0.35152122 -0.13144746 0.017340232 -0.11379927 0.0175473 -0.16930829 0.08097879 -0.14547531 -0.01524211 -0.25351885 -0.18520366 -0.0638159 0.032428816 -0.41010278 -0.12292245 -0.28326952 0.053229377 -0.03401935 0.024845349 -0.1435807 -0.31430516 -0.28441742 0.19058953 0.07220256 -0.42630246 0.13456237 -0.08109888 -0.27937296 0.04289286 -0.08479008 -0.050245546 0.38093928 0.110161744 -0.13020007 0.026780743 -0.062069204 -0.0011509531 0.00086309086 0.0132769225 0.10169581 -0.009560642 0.22868246 -0.30433804 -0.20636994 0.026501482 -0.1286088 0.23540083 -0.044686414 0.07943355 -0.041928064 -0.10737225 0.04951261 0.07161743 -0.11280871 -0.096705645 0.08684622 0.20008911 -0.2569607 0.22973007 0.14694656
6742-1 0.059838973 0.30471358 0.043794755 0.03377081 -0.23074766 0.28412703 0.09219492 -0.13676693 0.10231135 -0.056409374 -0.15087388 -0.12871581 -0.2128662 -0.049038276 0.05267919 0.22144517 -0.19856717 0.016553994 -0.049045723 -0.12802763 0.31437686 0.27265358 0.16433883 0.27415144 -0.12051682 0.22146972 -0.080858715 -0.2685617 0.004089147 0.042034045 0.10846398 0.12456556 0.052350193 0.19143736 0.14717312 -0.062334575 0.26412344 -0.2391659 -0.04654787 -0.217836 -0.0052056345 0.16638198 0.19739248 -0.04717198 -0.16253024 0.07221235 -0.5337035 -0.04976982 0.19753286 0.22877847 0.16909604 -0.23887326 -0.11356879 -0.2588299 0.06532524 0.2188409 0.03698137 0.26261955 -0.107134946 0.17603494 -0.14355746 -0.05689759 -0.012796617 -0.36723027 -0.21575218 -0.1656931 0.10003568 -0.09406477 0.055899322 0.09672148 0.415178 0.18491635 0.17330126 -0.25179735 -0.0013736812 0.19977058 -0.2045119 -0.0036848588 0.14502807 -0.056731936 0.2663842 -0.042199217 0.55797356 -0.27347714 0.24995112 0.06944954 -0.24511452 -0.16867985 -0.29058903 -0.028563892 0.3415485 0.15003757 -0.1310922 0.17839654 -0.18672857 -0.100460604 0.017980501 -0.06476936 -0.17493221 -0.10900433 -0.12583409 -0.019978385 -0.14820835 -0.35931197 -0.34149575 0.14612786 0.22544987 0.23532562 0.0853725 -0.524361 0.087910146 -0.19826584 -0.041121714 0.09100232 -0.021127729 -0.20710842 -0.093699984 -0.09627168 0.16968857 0.14431699 0.26228338 -0.14684549 0.1173395 -0.26602036 -0.35855907 0.07746124 0.19531888 0.05952371 0.2330196 -0.02318791 0.24836887 0.12857008 0.14230087 0.24162315 -0.039879713 -0.044540815 -0.13868491 -0.08397579 -0.027484616 -0.22812591 -0.45547894 0.11120218 0.10993346 0.22237386 0.14167881 0.056346063 0.13276187 0.0002492154 -0.032950852 -0.15263215 -0.24348852 -0.18868731 -0.03581128 -0.12881711 -0.22264765 -0.4100625 -0.30755165 0.061301388 0.17683548 0.14906377 0.051661704 -0.11851822 0.40794232 0.31108773 -0.13758513 -0.14786151 0.04256486 0.036091276 -0.04999643 -0.5224754 0.09901058 0.04158405 -0.17034075 -0.13446908 0.11676979 0.005479656 0.19472484 0.014919961 0.15012452 -0.03135277 0.23364465 0.032740843 -0.18551385 -0.13134634 0.069750756 -0.052910637 -0.007743345 -0.21718785 0.04423679 0.20763107 0.15752478 0.23534916 -0.15436812 0.35683268 -0.13679254 -0.25964555 0.34139657 -0.4357974 0.4758694 -0.053973336
